network "C:\Users\sorcar\github\Cardiac\db\memory\recognition\RecogniserBN.bif" {
// written by aGrUM 0.14.1
}

variable I {
   type discrete[31] {0, 314591, 1019107402, 2964414, 9515830, 1052411482, 79397631, 20947316, 80431643, 3014218, 1032480996, 9496683, 3014208, 792781074, 35489133, 123, 79278774, 1, 80087508, 6003265, 1094952099, 1026295355, 2, 3, 1118574845, 41719150, 1015479777, 80417229, 51895569, 79875185, 4};
}

variable F {
   type discrete[31] {0, 314591, 1019107402, 2964414, 9515830, 1052411482, 79397631, 20947316, 80431643, 3014218, 1032480996, 9496683, 3014208, 792781074, 35489133, 123, 79278774, 1, 80087508, 6003265, 1094952099, 1026295355, 2, 3, 1118574845, 41719150, 1015479777, 80417229, 51895569, 79875185, 4};
}

variable G {
   type discrete[2] {Female, Male};
}

variable A {
   type discrete[76] {0, 1, 2, 3, 4, 5, 6, 7, 8, 9, 10, 11, 12, 13, 14, 15, 16, 17, 18, 19, 20, 21, 22, 23, 24, 25, 26, 27, 28, 29, 30, 31, 32, 33, 34, 35, 36, 37, 38, 39, 40, 41, 42, 43, 44, 45, 46, 47, 48, 49, 50, 51, 52, 53, 54, 55, 56, 57, 58, 59, 60, 61, 62, 63, 64, 65, 66, 67, 68, 69, 70, 71, 72, 73, 74, 75};
}

variable H {
   type discrete[191] {50, 51, 52, 53, 54, 55, 56, 57, 58, 59, 60, 61, 62, 63, 64, 65, 66, 67, 68, 69, 70, 71, 72, 73, 74, 75, 76, 77, 78, 79, 80, 81, 82, 83, 84, 85, 86, 87, 88, 89, 90, 91, 92, 93, 94, 95, 96, 97, 98, 99, 100, 101, 102, 103, 104, 105, 106, 107, 108, 109, 110, 111, 112, 113, 114, 115, 116, 117, 118, 119, 120, 121, 122, 123, 124, 125, 126, 127, 128, 129, 130, 131, 132, 133, 134, 135, 136, 137, 138, 139, 140, 141, 142, 143, 144, 145, 146, 147, 148, 149, 150, 151, 152, 153, 154, 155, 156, 157, 158, 159, 160, 161, 162, 163, 164, 165, 166, 167, 168, 169, 170, 171, 172, 173, 174, 175, 176, 177, 178, 179, 180, 181, 182, 183, 184, 185, 186, 187, 188, 189, 190, 191, 192, 193, 194, 195, 196, 197, 198, 199, 200, 201, 202, 203, 204, 205, 206, 207, 208, 209, 210, 211, 212, 213, 214, 215, 216, 217, 218, 219, 220, 221, 222, 223, 224, 225, 226, 227, 228, 229, 230, 231, 232, 233, 234, 235, 236, 237, 238, 239, 240};
}

variable T {
   type discrete[336] {0, 1, 2, 3, 4, 5, 6, 7, 8, 9, 10, 11, 12, 13, 14, 15, 16, 17, 18, 19, 20, 21, 22, 23, 24, 25, 26, 27, 28, 29, 30, 31, 32, 33, 34, 35, 36, 37, 38, 39, 40, 41, 42, 43, 44, 45, 46, 47, 48, 49, 50, 51, 52, 53, 54, 55, 56, 57, 58, 59, 60, 61, 62, 63, 64, 65, 66, 67, 68, 69, 70, 71, 72, 73, 74, 75, 76, 77, 78, 79, 80, 81, 82, 83, 84, 85, 86, 87, 88, 89, 90, 91, 92, 93, 94, 95, 96, 97, 98, 99, 100, 101, 102, 103, 104, 105, 106, 107, 108, 109, 110, 111, 112, 113, 114, 115, 116, 117, 118, 119, 120, 121, 122, 123, 124, 125, 126, 127, 128, 129, 130, 131, 132, 133, 134, 135, 136, 137, 138, 139, 140, 141, 142, 143, 144, 145, 146, 147, 148, 149, 150, 151, 152, 153, 154, 155, 156, 157, 158, 159, 160, 161, 162, 163, 164, 165, 166, 167, 168, 169, 170, 171, 172, 173, 174, 175, 176, 177, 178, 179, 180, 181, 182, 183, 184, 185, 186, 187, 188, 189, 190, 191, 192, 193, 194, 195, 196, 197, 198, 199, 200, 201, 202, 203, 204, 205, 206, 207, 208, 209, 210, 211, 212, 213, 214, 215, 216, 217, 218, 219, 220, 221, 222, 223, 224, 225, 226, 227, 228, 229, 230, 231, 232, 233, 234, 235, 236, 237, 238, 239, 240, 241, 242, 243, 244, 245, 246, 247, 248, 249, 250, 251, 252, 253, 254, 255, 256, 257, 258, 259, 260, 261, 262, 263, 264, 265, 266, 267, 268, 269, 270, 271, 272, 273, 274, 275, 276, 277, 278, 279, 280, 281, 282, 283, 284, 285, 286, 287, 288, 289, 290, 291, 292, 293, 294, 295, 296, 297, 298, 299, 300, 301, 302, 303, 304, 305, 306, 307, 308, 309, 310, 311, 312, 313, 314, 315, 316, 317, 318, 319, 320, 321, 322, 323, 324, 325, 326, 327, 328, 329, 330, 331, 332, 333, 334, 335};
}

probability (I) {
   default 0.0322581 0.0322581 0.0322581 0.0322581 0.0322581 0.0322581 0.0322581 0.0322581 0.0322581 0.0322581 0.0322581 0.0322581 0.0322581 0.0322581 0.0322581 0.0322581 0.0322581 0.0322581 0.0322581 0.0322581 0.0322581 0.0322581 0.0322581 0.0322581 0.0322581 0.0322581 0.0322581 0.0322581 0.0322581 0.0322581 0.0322581;
}
probability (F | I) {
   (0) 0.933501 0.0464868 0.00634775 0.00404782 0.00109293 0.00146832 0.00101409 0.00065982 0.00060664 0.000521553 0.000330929 0.000349706 0.000307028 0.000255203 0.00027892 0.000243437 0.000264503 0.000239523 0.000208646 0.000201189 0.000186523 0.000173171 0.000166813 0.000155616 0.000144452 0.00013488 0.000133041 0.000131695 0.000119006 0.00011776 0.000111099;
   (314591) 0.662048 0.325788 0.00217902 0.00395011 0.000692294 0.000792039 0.000689578 0.000504924 0.000493807 0.000475011 0.000170945 0.000247054 0.000153853 0.000132068 0.000169136 0.000157604 0.000175521 0.00015161 0.00011432 9.80235e-05 9.21475e-05 8.80778e-05 8.62782e-05 7.76846e-05 7.42929e-05 7.43226e-05 7.23811e-05 6.94264e-05 6.28556e-05 6.17299e-05 5.74679e-05;
   (1019107402) 0.0541097 0.0220695 0.829053 0.0147133 0.00760422 0.00908723 0.00764841 0.00661038 0.00582544 0.00521051 0.00319626 0.00292021 0.00268902 0.00248907 0.00231721 0.00216788 0.0020369 0.00192107 0.00181791 0.00172542 0.00164203 0.00156644 0.00149762 0.00143467 0.00137688 0.00132365 0.00127442 0.0012288 0.00118637 0.00114684 0.00110988;
   (2964414) 0.0901631 0.0137266 0.012187 0.866602 0.00245552 0.00299152 0.00164847 0.00126894 0.00123054 0.00110025 0.000550461 0.000585901 0.000459812 0.000424882 0.000415605 0.000415241 0.000349046 0.000344489 0.000307691 0.000291586 0.000277089 0.000263967 0.000252035 0.000241137 0.000231147 0.000221952 0.000213463 0.000205601 0.000198298 0.000191498 0.000185151;
   (9515830) 0.78295 0.0436307 0.0398702 0.0632494 0.064544 0.000698241 0.000818887 0.000446041 0.000657701 0.00052139 0.000194338 0.000280344 0.000170026 0.000150114 0.000194972 0.000182132 0.000168624 0.000151877 0.000122346 0.000107901 0.000100554 9.5778e-05 9.10654e-05 8.71154e-05 8.31958e-05 7.9615e-05 7.656e-05 7.37305e-05 7.00128e-05 6.82733e-05 6.53552e-05;
   (1052411482) 0.0149912 0.00593328 0.00467546 0.00624114 0.00204608 0.948409 0.0019861 0.00173654 0.00128686 0.00110787 0.000987248 0.00089878 0.000824955 0.0007624 0.000708491 0.000661728 0.000620785 0.000584631 0.000552477 0.000523691 0.000497768 0.000474302 0.000452959 0.000433461 0.000415581 0.000399124 0.000383928 0.00036985 0.000356773 0.000344594 0.000333222;
   (79397631) 0.180346 0.00167629 0.00122561 0.00280382 0.00154889 0.00210192 0.80302 0.000947974 0.00111204 0.00142668 0.000233751 0.000545696 0.000212691 0.000181912 0.000402317 0.00028273 0.000287583 0.000263735 0.00016362 0.00013448 0.000124023 0.000114536 0.000111915 0.000104924 0.000100437 9.64358e-05 9.29966e-05 8.89653e-05 8.57957e-05 8.28444e-05 7.93588e-05;
   (20947316) 0.386871 0.00372943 0.0036254 0.00401592 0.00244416 0.00419344 0.00416349 0.574895 0.00320008 0.00289937 0.000572819 0.00120722 0.000505748 0.000446701 0.000950386 0.000879037 0.000859553 0.000811788 0.000754384 0.000329677 0.00029836 0.00028424 0.000271402 0.000259675 0.000244722 0.000234991 0.000226005 0.000217684 0.000209956 0.000202759 0.00019604;
   (80431643) 0.00842619 0.00655576 0.00667747 0.00797139 0.00586396 0.00697215 0.00649811 0.00586396 0.88341 0.00521242 0.00471725 0.00430986 0.00396865 0.00367864 0.00342902 0.00321186 0.00302114 0.00285231 0.00270178 0.00256668 0.00244479 0.00233418 0.00223337 0.00214112 0.00205637 0.00197823 0.00190595 0.00183889 0.0017765 0.00171831 0.00166389;
   (3014218) 0.00250851 0.000889719 0.000426543 0.00122404 0.000919573 0.000500128 0.000973187 0.000370444 0.000592439 0.986788 0.000324132 0.000427475 0.000368072 0.000252765 0.000383656 0.000221105 0.000423277 0.000503591 0.00019478 0.00019503 0.000168472 0.000162541 0.000155393 0.000145626 0.000141423 0.000135277 0.000130636 0.000128445 0.000119006 0.000115498 0.000111099;
   (1032480996) 0.370425 0.0477218 0.0477218 0.0477218 0.00243431 0.0477218 0.0477218 0.0477218 0.0477218 0.0477218 0.219088 0.00221302 0.00203319 0.00188072 0.00174972 0.001636 0.00153631 0.00144817 0.00136975 0.00129947 0.0012361 0.00117872 0.00112647 0.00107874 0.0010349 0.000994543 0.000957248 0.000922681 0.000890551 0.000860609 0.00083264;
   (9496683) 0.785641 0.0127804 0.00615856 0.00773584 0.000920684 0.00699998 0.00943352 0.00584588 0.0058541 0.00975834 0.000179511 0.146409 0.000181857 0.000152527 0.000234579 0.000167963 0.000187702 0.000163959 0.000132513 0.000115712 0.000103593 9.94471e-05 0.000101542 9.15585e-05 8.71018e-05 8.53266e-05 7.89535e-05 8.02769e-05 7.55005e-05 7.51627e-05 6.83959e-05;
   (3014208) 0.848505 0.0123469 0.0112469 0.0126462 0.00112459 0.0116767 0.0124235 0.011446 0.0115259 0.0165359 0.000328054 0.000659424 0.0453003 0.000302821 0.000394612 0.000503676 0.000362237 0.000324738 0.000265931 0.000225009 0.000209026 0.000199135 0.000192938 0.000181926 0.000174392 0.000166104 0.00015975 0.000153867 0.000143427 0.000141446 0.000133316;
   (792781074) 0.140954 0.0417819 0.0417819 0.0417819 0.0417819 0.0417819 0.0417819 0.0417819 0.0417819 0.0417819 0.00369277 0.00369277 0.00369277 0.432056 0.00342901 0.00321184 0.00302114 0.00285231 0.00270178 0.00256668 0.00244478 0.00233417 0.00223337 0.00214112 0.00205637 0.00197823 0.00190594 0.00183888 0.0017765 0.00171831 0.00166389;
   (35489133) 0.572782 0.0317735 0.025618 0.0276426 0.0333872 0.0302687 0.0316365 0.025618 0.0276699 0.0332232 0.00100716 0.00307381 0.00100716 0.00100716 0.143397 0.00127081 0.000883218 0.000832997 0.000787379 0.000746532 0.000709735 0.000676424 0.000646116 0.000618425 0.000593026 0.000569643 0.000548048 0.00052804 0.00050945 0.000492134 0.000475964;
   (123) 0.00464586 0.00356058 0.0034218 0.00341116 0.00322256 0.00349299 0.0037207 0.00322256 0.00332575 0.00322256 0.00322256 0.00322256 0.00322256 0.00322256 0.00322256 0.915407 0.00302117 0.00285232 0.00270178 0.00256668 0.00244478 0.00233418 0.00223337 0.00214112 0.00205638 0.00197824 0.00190595 0.00183889 0.0017765 0.00171831 0.00166389;
   (79278774) 0.772034 0.00965698 0.00335774 0.00980356 0.0070182 0.00486757 0.00912207 0.00365056 0.00394931 0.00944639 0.000111271 0.00502627 0.000129575 0.000111271 0.000258782 0.00332417 0.156729 0.000305854 0.000136694 0.000109656 9.55788e-05 9.23754e-05 9.03079e-05 8.31132e-05 7.98674e-05 7.60488e-05 7.37978e-05 7.05386e-05 6.53023e-05 6.42597e-05 5.977e-05;
   (1) 0.350422 0.00107872 0.000808281 0.00400104 0.0013387 0.00100213 0.00118352 0.000757526 0.00134345 0.00143026 0.000163049 0.000846217 0.00018507 0.000163049 0.000846643 0.000824133 0.00121541 0.630658 0.000271754 0.000165358 0.000151857 0.000144162 0.000135861 0.000129876 0.000120138 0.000112672 0.000108351 0.000104351 9.91779e-05 9.57674e-05 9.2584e-05;
   (80087508) 0.00363078 0.00235479 0.00224536 0.00222559 0.00207948 0.00285907 0.0020752 0.00214584 0.00231781 0.00209232 0.00182127 0.00200986 0.00182127 0.00182127 0.00192928 0.00192728 0.00262275 0.00220575 0.943302 0.00172542 0.00164202 0.00156644 0.0014976 0.00143467 0.00137688 0.00132364 0.00127442 0.0012288 0.00118637 0.00114684 0.00110988;
   (6003265) 0.382694 0.000765028 0.000508952 0.00094544 0.000853884 0.000681847 0.000795659 0.000658317 0.000551138 0.000981846 0.000217483 0.000761458 0.000934606 0.000217483 0.000771405 0.000512545 0.00110238 0.00094744 0.000540861 0.600628 0.000535171 0.000538549 0.000466459 0.000438163 0.000408749 0.000393202 0.000377579 0.000275608 0.000161232 0.000193587 0.000141601;
   (1094952099) 0.00196636 0.0007016 0.000775402 0.00101617 0.000850032 0.00156579 0.00083553 0.000711358 0.00070428 0.000630936 0.000551845 0.000642371 0.000640858 0.000551845 0.000620453 0.000570485 0.000753213 0.001073 0.000954674 0.000776226 0.978424 0.000634728 0.00054081 0.000504714 0.000467846 0.000497523 0.000477612 0.000410714 0.00039629 0.000382853 0.000370233;
   (1026295355) 0.00336368 0.00269555 0.00261107 0.00267508 0.00279796 0.00355311 0.00275955 0.00247284 0.00260341 0.00255474 0.00233973 0.00254453 0.00251892 0.00233973 0.00267252 0.00258805 0.00282101 0.00264692 0.00251892 0.00264948 0.00293107 0.926029 0.00223338 0.00214112 0.00205638 0.00197824 0.00190596 0.00183889 0.0017765 0.00171831 0.00166389;
   (2) 0.108628 0.00109459 0.000847946 0.00159285 0.00114366 0.0011568 0.00420996 0.00107622 0.000877689 0.00104949 0.000376261 0.00128392 0.000980095 0.000376261 0.00120638 0.000843767 0.00201487 0.00149715 0.00102181 0.00127021 0.00106793 0.00122968 0.860953 0.000984828 0.000644933 0.000547831 0.000558789 0.00053353 0.000317526 0.000336573 0.0002777;
   (3) 0.42449 0.00135443 0.00125026 0.00142297 0.00133798 0.0015285 0.00135443 0.0026072 0.00132564 0.00132019 0.000392722 0.00136403 0.00129412 0.000392722 0.00135031 0.00125026 0.00136678 0.00145175 0.00135168 0.00133798 0.00139418 0.00125026 0.00138322 0.542528 0.000803671 0.000772594 0.00074387 0.000548936 0.000339594 0.000382025 0.00030919;
   (1118574845) 0.00240322 0.00155541 0.00142419 0.00161438 0.00155095 0.00164018 0.00171086 0.00220508 0.0016012 0.00166386 0.00137377 0.00146728 0.00168296 0.00137377 0.00158272 0.00150063 0.00182492 0.00159382 0.00152782 0.00159863 0.00149369 0.00163691 0.00167914 0.00222114 0.952328 0.00131882 0.00137625 0.00135496 0.00127127 0.00126982 0.00115417;
   (41719150) 0.537252 0.00108054 0.000925446 0.00111197 0.00101364 0.00117888 0.00102987 0.00103492 0.000977138 0.000982206 0.000284025 0.00102987 0.000996413 0.000284025 0.00106938 0.000925446 0.00112313 0.00111501 0.00103492 0.00123058 0.00121132 0.00113525 0.00102378 0.00101972 0.000977138 0.436314 0.000889844 0.00085853 0.000300723 0.000346468 0.00024448;
   (1015479777) 0.00182565 0.000387198 0.000431451 0.000322553 0.000233921 0.00047702 0.000451122 0.00020509 0.000332165 0.000277061 0.000159825 0.000202936 0.000234059 0.000159825 0.000181851 0.000253133 0.000551609 0.000390183 0.000499878 0.000204599 0.000385046 0.000469094 0.000402827 0.000187063 0.000263967 0.000214449 0.989558 0.000257402 0.000155666 0.000181503 0.000143684;
   (80417229) 0.0618079 0.000832137 0.000666561 0.00103107 0.0009216 0.000605258 0.000993121 0.000591826 0.00076822 0.000853879 0.00021754 0.000686916 0.000703389 0.00021754 0.000945252 0.000512955 0.00110047 0.000886855 0.000602925 0.000752475 0.000506638 0.000595023 0.000942258 0.000567037 0.000769483 0.000495281 0.000745877 0.918901 0.00022192 0.000354332 0.000203488;
   (51895569) 0.851027 0.0037884 0.00293767 0.0036102 0.003353 0.00359917 0.00367076 0.00301195 0.00332958 0.0031783 0.00019811 0.00317412 0.00341799 0.00019811 0.00316266 0.0029903 0.00349871 0.00368796 0.00302188 0.00311244 0.00346251 0.00325998 0.00378359 0.00310327 0.00311144 0.00333091 0.0034561 0.00315911 0.0648897 0.000265156 0.000210032;
   (79875185) 0.22889 0.00142905 0.000979385 0.00158058 0.00123316 0.000976504 0.0016949 0.000920238 0.000931865 0.00137225 0.000287238 0.00117894 0.00122201 0.000287238 0.00112411 0.000805304 0.0021094 0.00161537 0.00108941 0.00118307 0.000827482 0.00100986 0.00150276 0.000890855 0.00099502 0.000892594 0.00124959 0.00178624 0.000407091 0.739188 0.000340837;
   (4) 0.00404102 0.00147658 0.00100374 0.00150943 0.00131501 0.000963238 0.00162178 0.0011902 0.00105219 0.00149007 0.000833332 0.00145435 0.00121391 0.000833332 0.00090947 0.00129632 0.00194095 0.00169626 0.00134644 0.00136576 0.00100989 0.00092757 0.00154862 0.00102619 0.00111628 0.000902745 0.00130957 0.00284276 0.000879528 0.00231746 0.957566;
}
probability (G | I) {
   (0) 0.5 0.5;
   (314591) 0.0116182 0.988382;
   (1019107402) 0.0329501 0.96705;
   (2964414) 0.021879 0.978121;
   (9515830) 0.0367995 0.9632;
   (1052411482) 0.115264 0.884736;
   (79397631) 0.00557768 0.994422;
   (20947316) 0.0460015 0.953999;
   (80431643) 0.0380586 0.961941;
   (3014218) 0.00290784 0.997092;
   (1032480996) 0.0514997 0.9485;
   (9496683) 0.0153186 0.984681;
   (3014208) 0.0441535 0.955846;
   (792781074) 0.0514997 0.9485;
   (35489133) 0.0482175 0.951782;
   (123) 0.0257499 0.97425;
   (79278774) 0.0134226 0.986577;
   (1) 0.0119242 0.988076;
   (80087508) 0.0171666 0.982833;
   (6003265) 0.0271537 0.972846;
   (1094952099) 0.132298 0.867702;
   (1026295355) 0.0543044 0.945696;
   (2) 0.0203146 0.979685;
   (3) 0.0452907 0.954709;
   (1118574845) 0.0171666 0.982833;
   (41719150) 0.52575 0.47425;
   (1015479777) 0.00365699 0.996343;
   (80417229) 0.00719241 0.992808;
   (51895569) 0.104814 0.895186;
   (79875185) 0.0133917 0.986608;
   (4) 0.0157518 0.984248;
}
probability (A | I) {
   (0) 0.0131579 0.0131579 0.0131579 0.0131579 0.0131579 0.0131579 0.0131579 0.0131579 0.0131579 0.0131579 0.0131579 0.0131579 0.0131579 0.0131579 0.0131579 0.0131579 0.0131579 0.0131579 0.0131579 0.0131579 0.0131579 0.0131579 0.0131579 0.0131579 0.0131579 0.0131579 0.0131579 0.0131579 0.0131579 0.0131579 0.0131579 0.0131579 0.0131579 0.0131579 0.0131579 0.0131579 0.0131579 0.0131579 0.0131579 0.0131579 0.0131579 0.0131579 0.0131579 0.0131579 0.0131579 0.0131579 0.0131579 0.0131579 0.0131579 0.0131579 0.0131579 0.0131579 0.0131579 0.0131579 0.0131579 0.0131579 0.0131579 0.0131579 0.0131579 0.0131579 0.0131579 0.0131579 0.0131579 0.0131579 0.0131579 0.0131579 0.0131579 0.0131579 0.0131579 0.0131579 0.0131579 0.0131579 0.0131579 0.0131579 0.0131579 0.0131579;
   (314591) 6.05207e-41 6.05249e-41 6.05319e-41 6.05459e-41 6.05655e-41 6.05935e-41 6.06328e-41 6.06804e-41 6.07365e-41 6.07953e-41 6.08528e-41 6.09004e-41 6.09313e-41 6.09425e-41 6.09313e-41 6.09004e-41 6.08528e-41 6.07953e-41 6.07365e-41 6.06804e-41 6.06328e-41 6.05935e-41 6.05655e-41 6.05459e-41 6.05319e-41 6.05249e-41 6.05221e-41 6.05263e-41 6.06944e-41 6.07477e-41 6.13264e-41 6.2418e-41 6.32504e-41 6.21518e-41 6.08192e-41 6.07687e-41 6.09985e-41 6.10938e-41 6.09551e-41 6.08192e-41 6.07995e-41 6.15843e-41 6.30374e-41 6.15016e-41 2.00849e-28 4.8937e-13 0.000835353 0.998329 0.000835328 4.89342e-13 2.00915e-28 6.08009e-41 6.06342e-41 6.05333e-41 6.05207e-41 6.05165e-41 6.05151e-41 6.05151e-41 6.05151e-41 6.05151e-41 6.05151e-41 6.05151e-41 6.05151e-41 6.05151e-41 6.05151e-41 6.05151e-41 6.05151e-41 6.05151e-41 6.05151e-41 6.05151e-41 6.05151e-41 6.05151e-41 6.05151e-41 6.05151e-41 6.05151e-41 6.05151e-41;
   (1019107402) 6.02755e-41 6.02755e-41 6.02755e-41 6.02755e-41 6.02755e-41 6.02755e-41 6.02755e-41 6.02755e-41 6.02755e-41 6.02755e-41 6.02755e-41 6.02755e-41 6.02755e-41 6.02755e-41 6.02755e-41 6.02755e-41 6.02755e-41 6.02755e-41 6.02755e-41 6.02755e-41 1.99637e-28 4.86913e-13 0.000831668 0.99832 0.000848299 5.03059e-13 2.03714e-28 6.05627e-41 6.03007e-41 6.02769e-41 6.02755e-41 6.02755e-41 6.02755e-41 6.02755e-41 6.02755e-41 6.02755e-41 6.02755e-41 6.02755e-41 6.02755e-41 6.02755e-41 6.02755e-41 6.02755e-41 6.02755e-41 6.02755e-41 6.02755e-41 6.02755e-41 6.02755e-41 6.02755e-41 6.02755e-41 6.02755e-41 6.02755e-41 6.02755e-41 6.02755e-41 6.02755e-41 6.02755e-41 6.02755e-41 6.02755e-41 6.02755e-41 6.02755e-41 6.02755e-41 6.02755e-41 6.02755e-41 6.02755e-41 6.02755e-41 6.02755e-41 6.02755e-41 6.02755e-41 6.02755e-41 6.02755e-41 6.02755e-41 6.02755e-41 6.02755e-41 6.02755e-41 6.02755e-41 6.02755e-41 6.02755e-41;
   (2964414) 6.04086e-41 6.04086e-41 6.04086e-41 6.04086e-41 6.04086e-41 6.04086e-41 6.04086e-41 6.04086e-41 6.04086e-41 6.04086e-41 6.04086e-41 6.04086e-41 6.04086e-41 6.04086e-41 6.04086e-41 6.04086e-41 6.04086e-41 6.04086e-41 6.04086e-41 6.04086e-41 6.04086e-41 6.04086e-41 6.04086e-41 6.04086e-41 6.04086e-41 6.04086e-41 6.04086e-41 6.04086e-41 6.04086e-41 6.04086e-41 6.04086e-41 6.04086e-41 6.04086e-41 6.04086e-41 6.04086e-41 6.04086e-41 6.04086e-41 6.04086e-41 6.04086e-41 6.04086e-41 6.04086e-41 6.04086e-41 6.04086e-41 6.04086e-41 6.04086e-41 6.04086e-41 6.04086e-41 6.04086e-41 6.04086e-41 6.041e-41 6.04338e-41 6.06972e-41 6.16487e-41 2.06747e-28 4.98022e-13 0.000837476 0.998324 0.000838613 4.92887e-13 2.01657e-28 6.07085e-41 6.07365e-41 6.07869e-41 6.06552e-41 6.05039e-41 6.04408e-41 6.04198e-41 6.04114e-41 6.041e-41 6.04086e-41 6.04086e-41 6.04086e-41 6.04086e-41 6.04086e-41 6.04086e-41 6.04086e-41;
   (9515830) 6.02628e-41 6.02628e-41 6.02628e-41 6.02628e-41 6.02628e-41 6.02628e-41 6.02628e-41 6.02628e-41 6.02628e-41 6.02628e-41 6.02628e-41 6.02628e-41 6.02628e-41 6.02628e-41 6.02628e-41 6.02628e-41 6.02628e-41 6.02628e-41 6.02628e-41 6.02628e-41 6.02628e-41 6.02628e-41 6.02628e-41 6.02628e-41 6.02628e-41 6.02628e-41 6.02628e-41 6.02628e-41 6.02628e-41 6.02628e-41 6.02628e-41 6.02628e-41 6.02628e-41 6.02628e-41 6.02628e-41 6.02628e-41 6.02628e-41 6.02628e-41 6.02628e-41 6.02628e-41 6.02628e-41 6.02628e-41 6.02628e-41 6.02628e-41 6.02628e-41 6.02628e-41 6.02628e-41 6.02628e-41 6.02628e-41 6.02628e-41 6.02628e-41 6.02628e-41 6.02628e-41 6.02628e-41 6.02628e-41 6.0267e-41 6.02951e-41 6.03946e-41 6.05375e-41 6.06118e-41 6.0644e-41 6.06958e-41 6.0822e-41 6.10826e-41 2.03518e-28 4.94678e-13 0.000839048 0.998325 0.000835909 4.90504e-13 2.00503e-28 6.03259e-41 6.02684e-41 6.02628e-41 6.02628e-41 6.02628e-41;
   (1052411482) 5.9132e-41 5.9132e-41 5.9132e-41 5.9132e-41 5.9132e-41 5.9132e-41 5.9132e-41 5.9132e-41 5.9132e-41 5.9132e-41 5.9132e-41 5.9132e-41 5.9132e-41 5.9132e-41 5.9132e-41 5.9132e-41 5.9132e-41 5.9132e-41 1.95884e-28 4.8777e-13 0.000859446 0.998325 0.000815823 4.792e-13 1.97555e-28 5.93226e-41 5.91418e-41 5.9132e-41 5.9132e-41 5.9132e-41 5.9132e-41 5.9132e-41 5.9132e-41 5.9132e-41 5.9132e-41 5.9132e-41 5.9132e-41 5.9132e-41 5.9132e-41 5.9132e-41 5.9132e-41 5.9132e-41 5.9132e-41 5.9132e-41 5.9132e-41 5.9132e-41 5.9132e-41 5.9132e-41 5.9132e-41 5.9132e-41 5.91334e-41 5.91348e-41 5.91376e-41 5.91432e-41 5.91558e-41 5.91754e-41 5.92049e-41 5.92427e-41 5.92847e-41 5.93254e-41 5.93548e-41 5.9366e-41 5.93548e-41 5.93254e-41 5.92847e-41 5.92427e-41 5.92049e-41 5.91754e-41 5.91558e-41 5.91432e-41 5.91376e-41 5.91348e-41 5.91334e-41 5.9132e-41 5.9132e-41 5.9132e-41;
   (79397631) 6.048e-41 6.048e-41 6.048e-41 6.048e-41 6.048e-41 6.048e-41 6.048e-41 6.048e-41 6.048e-41 6.048e-41 6.048e-41 6.048e-41 6.048e-41 6.048e-41 6.048e-41 6.048e-41 6.048e-41 6.048e-41 6.048e-41 6.048e-41 6.048e-41 6.048e-41 6.048e-41 6.048e-41 6.048e-41 6.048e-41 6.048e-41 6.048e-41 6.048e-41 6.048e-41 6.048e-41 6.048e-41 6.048e-41 6.048e-41 6.048e-41 6.048e-41 6.048e-41 6.04828e-41 6.04913e-41 6.05221e-41 6.05823e-41 6.063e-41 6.06328e-41 6.06426e-41 6.06888e-41 6.07505e-41 6.07883e-41 6.07967e-41 6.07729e-41 2.01091e-28 4.89825e-13 0.000835455 0.998328 0.000836177 4.91134e-13 2.02312e-28 6.14792e-41 6.1915e-41 6.22653e-41 6.24545e-41 6.23942e-41 6.21027e-41 6.17832e-41 6.16123e-41 6.15983e-41 6.15296e-41 6.10237e-41 6.06888e-41 6.14259e-41 6.29912e-41 6.15689e-41 6.07295e-41 6.07477e-41 6.10027e-41 6.16725e-41 6.092e-41;
   (20947316) 6.02726e-41 6.02726e-41 6.02726e-41 6.02726e-41 6.02726e-41 6.02726e-41 6.02726e-41 6.02726e-41 6.02726e-41 6.02726e-41 6.02726e-41 6.02726e-41 6.02726e-41 6.02726e-41 6.02726e-41 6.02726e-41 6.02726e-41 6.02726e-41 6.02726e-41 6.02726e-41 6.02726e-41 6.02726e-41 6.02726e-41 6.02726e-41 6.02726e-41 6.02726e-41 6.02726e-41 6.02726e-41 6.02726e-41 6.02726e-41 6.02726e-41 6.02726e-41 6.02726e-41 6.02726e-41 6.02726e-41 6.02726e-41 6.02726e-41 6.02726e-41 6.02726e-41 6.02726e-41 6.02741e-41 6.02755e-41 6.02811e-41 6.02895e-41 6.03035e-41 6.03273e-41 6.03637e-41 6.04142e-41 6.04828e-41 6.05809e-41 6.07057e-41 6.0857e-41 6.10139e-41 6.11527e-41 6.1255e-41 6.13208e-41 6.13629e-41 6.13811e-41 6.13699e-41 6.13236e-41 6.12353e-41 6.11106e-41 2.01932e-28 4.91308e-13 0.000836925 0.998329 0.00083397 4.87888e-13 1.99876e-28 6.03161e-41 6.02965e-41 6.02853e-41 6.02783e-41 6.02755e-41 6.02741e-41 6.02726e-41;
   (80431643) 6.05627e-41 6.05627e-41 6.05627e-41 6.05627e-41 6.05627e-41 6.05627e-41 6.05627e-41 6.05627e-41 6.05627e-41 6.05627e-41 6.05627e-41 6.05627e-41 6.05627e-41 6.05627e-41 6.05627e-41 6.05627e-41 6.05627e-41 6.05627e-41 6.05627e-41 6.05627e-41 6.05627e-41 6.05627e-41 6.05627e-41 6.05627e-41 6.05627e-41 6.05627e-41 6.05627e-41 6.05627e-41 6.05627e-41 6.05627e-41 6.05627e-41 6.05641e-41 6.05879e-41 6.08528e-41 6.18057e-41 6.2582e-41 6.18057e-41 6.08528e-41 6.05879e-41 6.05641e-41 6.05627e-41 6.05627e-41 6.05627e-41 2.00588e-28 4.89227e-13 0.000835282 0.998329 0.000835282 4.89227e-13 2.00588e-28 6.05627e-41 6.05627e-41 6.05627e-41 6.05627e-41 6.05627e-41 6.05627e-41 6.05627e-41 6.05627e-41 6.05627e-41 6.05627e-41 6.05627e-41 6.05627e-41 6.05627e-41 6.05627e-41 6.05627e-41 6.05627e-41 6.05627e-41 6.05627e-41 6.05627e-41 6.05627e-41 6.05627e-41 6.05627e-41 6.05627e-41 6.05627e-41 6.05627e-41 6.05627e-41;
   (3014218) 5.82436e-41 5.82436e-41 5.82436e-41 5.82436e-41 5.82436e-41 5.82436e-41 5.82436e-41 5.82436e-41 5.82436e-41 5.82436e-41 5.82436e-41 5.82436e-41 5.82436e-41 5.82436e-41 5.82436e-41 5.82436e-41 5.82436e-41 5.82436e-41 5.82436e-41 5.82436e-41 5.82436e-41 5.82436e-41 5.82436e-41 5.82436e-41 5.82436e-41 5.82436e-41 5.82436e-41 5.82436e-41 5.82436e-41 5.82436e-41 5.82436e-41 5.82436e-41 5.82436e-41 5.82436e-41 5.82436e-41 5.82436e-41 5.82436e-41 5.82436e-41 5.82436e-41 5.82436e-41 5.82436e-41 5.82436e-41 5.82436e-41 5.82436e-41 5.82436e-41 5.82436e-41 5.82436e-41 5.82436e-41 5.82436e-41 5.82436e-41 5.82436e-41 5.82436e-41 5.82436e-41 5.8245e-41 5.8252e-41 5.82716e-41 5.83136e-41 5.83921e-41 5.85014e-41 5.86233e-41 5.87578e-41 5.89092e-41 5.90507e-41 5.95258e-41 6.12508e-41 6.31902e-41 2.07697e-28 4.9882e-13 0.000847488 0.998326 0.000826534 4.78058e-13 1.93794e-28 5.8287e-41 5.9799e-41 5.8245e-41;
   (1032480996) 6.05627e-41 6.05627e-41 6.05627e-41 6.05627e-41 6.05627e-41 6.05627e-41 6.05627e-41 6.05627e-41 6.05627e-41 6.05627e-41 6.05627e-41 6.05627e-41 6.05627e-41 6.05627e-41 6.05627e-41 6.05627e-41 6.05627e-41 6.05627e-41 6.05627e-41 6.05627e-41 2.00588e-28 4.89227e-13 0.000835282 0.998329 0.000835282 4.89227e-13 2.00588e-28 6.05627e-41 6.05627e-41 6.05627e-41 6.05627e-41 6.05627e-41 6.05627e-41 6.05627e-41 6.05627e-41 6.05627e-41 6.05627e-41 6.05627e-41 6.05627e-41 6.05627e-41 6.05627e-41 6.05627e-41 6.05627e-41 6.05627e-41 6.05627e-41 6.05627e-41 6.05627e-41 6.05627e-41 6.05627e-41 6.05627e-41 6.05627e-41 6.05627e-41 6.05627e-41 6.05627e-41 6.05627e-41 6.05627e-41 6.05627e-41 6.05627e-41 6.05627e-41 6.05627e-41 6.05627e-41 6.05627e-41 6.05627e-41 6.05627e-41 6.05627e-41 6.05627e-41 6.05627e-41 6.05627e-41 6.05627e-41 6.05627e-41 6.05627e-41 6.05627e-41 6.05627e-41 6.05627e-41 6.05627e-41 6.05627e-41;
   (9496683) 5.92301e-41 5.92301e-41 5.92301e-41 5.92301e-41 5.92301e-41 5.92301e-41 5.92301e-41 5.92301e-41 5.92301e-41 5.92301e-41 5.92301e-41 5.92301e-41 5.92301e-41 5.92301e-41 5.92301e-41 5.92301e-41 5.92301e-41 5.92301e-41 5.92301e-41 5.92301e-41 5.92301e-41 5.92315e-41 5.92315e-41 5.92329e-41 5.92357e-41 5.92385e-41 5.92441e-41 5.92511e-41 5.92595e-41 5.92665e-41 5.92763e-41 5.92833e-41 5.92889e-41 5.92959e-41 5.92987e-41 5.9303e-41 5.93044e-41 5.93044e-41 5.93058e-41 5.93058e-41 5.931e-41 5.9317e-41 5.93296e-41 5.9352e-41 5.93772e-41 5.94165e-41 5.94599e-41 5.95131e-41 5.95706e-41 5.96154e-41 5.97219e-41 5.98747e-41 5.97808e-41 5.99027e-41 5.99013e-41 1.99653e-28 4.91227e-13 0.000840058 0.998327 0.000833353 4.87921e-13 1.98904e-28 5.96014e-41 5.93506e-41 5.92679e-41 5.92483e-41 5.92385e-41 5.92343e-41 5.92329e-41 5.92315e-41 5.92315e-41 5.92301e-41 5.92301e-41 5.92301e-41 5.92301e-41 5.92301e-41;
   (3014208) 6.05557e-41 6.05557e-41 6.05557e-41 6.05557e-41 6.05557e-41 6.05557e-41 6.05557e-41 6.05557e-41 6.05557e-41 6.05557e-41 6.05557e-41 6.05557e-41 6.05557e-41 6.05557e-41 6.05557e-41 6.05557e-41 6.05557e-41 6.05557e-41 6.05571e-41 6.05571e-41 6.05585e-41 6.05613e-41 6.05641e-41 6.05683e-41 6.05739e-41 6.05823e-41 6.05921e-41 6.06034e-41 6.0616e-41 6.063e-41 6.0644e-41 6.06552e-41 6.0665e-41 6.0672e-41 6.06734e-41 6.0672e-41 6.0665e-41 6.06552e-41 6.0644e-41 6.063e-41 6.0616e-41 6.06034e-41 6.05921e-41 6.05823e-41 6.05739e-41 6.05683e-41 6.05641e-41 6.05613e-41 6.05585e-41 6.05571e-41 6.05571e-41 6.05557e-41 6.05557e-41 6.05557e-41 6.05557e-41 6.05557e-41 6.05557e-41 6.05557e-41 6.05557e-41 6.05557e-41 6.05557e-41 6.05599e-41 6.06006e-41 6.07477e-41 6.08668e-41 6.07547e-41 2.01131e-28 4.91948e-13 0.000836926 0.998328 0.000835195 4.89176e-13 2.00567e-28 6.05557e-41 6.05557e-41 6.05557e-41;
   (792781074) 6.05627e-41 6.05627e-41 6.05627e-41 6.05627e-41 6.05627e-41 6.05627e-41 6.05627e-41 6.05627e-41 6.05627e-41 6.05627e-41 6.05627e-41 6.05627e-41 6.05627e-41 6.05627e-41 6.05627e-41 6.05627e-41 6.05627e-41 6.05627e-41 6.05627e-41 6.05627e-41 6.05627e-41 6.05627e-41 6.05627e-41 6.05627e-41 6.05627e-41 6.05627e-41 6.05627e-41 6.05627e-41 6.05627e-41 6.05627e-41 6.05627e-41 6.05627e-41 6.05627e-41 6.05627e-41 6.05627e-41 6.05627e-41 6.05627e-41 6.05627e-41 6.05627e-41 6.05627e-41 6.05627e-41 6.05627e-41 6.05627e-41 6.05627e-41 6.05627e-41 6.05627e-41 6.05627e-41 6.05627e-41 6.05627e-41 6.05627e-41 6.05627e-41 6.05627e-41 6.05627e-41 6.05627e-41 6.05627e-41 6.05627e-41 2.00588e-28 4.89227e-13 0.000835282 0.998329 0.000835282 4.89227e-13 2.00588e-28 6.05627e-41 6.05627e-41 6.05627e-41 6.05627e-41 6.05627e-41 6.05627e-41 6.05627e-41 6.05627e-41 6.05627e-41 6.05627e-41 6.05627e-41 6.05627e-41 6.05627e-41;
   (35489133) 6.05627e-41 6.05627e-41 6.05627e-41 6.05627e-41 6.05627e-41 6.05627e-41 6.05627e-41 6.05627e-41 6.05627e-41 6.05627e-41 6.05627e-41 6.05627e-41 6.05627e-41 6.05627e-41 6.05627e-41 6.05627e-41 6.05627e-41 6.05627e-41 6.05627e-41 6.05627e-41 6.05627e-41 6.05627e-41 6.05627e-41 6.05627e-41 6.05627e-41 6.05627e-41 6.05627e-41 6.05627e-41 6.05627e-41 6.05627e-41 6.05627e-41 6.05627e-41 6.05627e-41 6.05627e-41 6.05627e-41 6.05627e-41 6.05627e-41 6.05627e-41 6.05627e-41 6.05627e-41 6.05627e-41 6.05627e-41 6.05627e-41 6.05627e-41 6.05627e-41 6.05627e-41 6.05627e-41 6.05627e-41 6.05627e-41 6.05627e-41 6.05627e-41 6.05627e-41 6.05627e-41 6.05627e-41 2.00588e-28 4.89227e-13 0.000835282 0.998329 0.000835282 4.89227e-13 2.00588e-28 6.05627e-41 6.05627e-41 6.05697e-41 6.06132e-41 6.07841e-41 6.1098e-41 6.12802e-41 6.1098e-41 6.07841e-41 6.06132e-41 6.05697e-41 6.05627e-41 6.05627e-41 6.05627e-41 6.05627e-41;
   (123) 5.93716e-41 5.93716e-41 5.93716e-41 5.93716e-41 5.93716e-41 5.93716e-41 5.93716e-41 5.93716e-41 5.93716e-41 5.93716e-41 5.93716e-41 5.93716e-41 5.93716e-41 5.93716e-41 5.93716e-41 5.93716e-41 5.93716e-41 5.93716e-41 5.93716e-41 5.93716e-41 5.93716e-41 5.93716e-41 5.93716e-41 5.93716e-41 5.93716e-41 5.93716e-41 5.9373e-41 5.93758e-41 5.93842e-41 5.94052e-41 5.94487e-41 5.953e-41 5.96659e-41 5.98593e-41 1.99028e-28 4.87299e-13 0.00083439 0.998331 0.00083439 4.87299e-13 1.99028e-28 5.98593e-41 5.96659e-41 5.953e-41 5.94487e-41 5.94052e-41 5.93842e-41 5.93758e-41 5.9373e-41 5.93716e-41 5.93716e-41 5.93716e-41 5.93716e-41 5.93716e-41 5.93716e-41 5.93716e-41 5.93716e-41 5.93716e-41 5.93716e-41 5.93716e-41 5.93716e-41 5.93716e-41 5.93716e-41 5.93716e-41 5.93716e-41 5.93716e-41 5.93716e-41 5.93716e-41 5.93716e-41 5.93716e-41 5.93716e-41 5.93716e-41 5.93716e-41 5.93716e-41 5.93716e-41 5.93716e-41;
   (79278774) 5.97738e-41 5.97752e-41 5.97766e-41 5.97794e-41 5.9785e-41 5.97948e-41 5.98088e-41 5.98228e-41 5.9834e-41 5.98382e-41 5.9834e-41 5.98228e-41 5.98088e-41 5.97948e-41 5.9785e-41 5.97794e-41 5.97766e-41 5.97752e-41 5.97738e-41 5.97738e-41 5.97738e-41 5.97738e-41 5.97738e-41 5.97752e-41 5.97752e-41 5.9778e-41 5.97808e-41 5.97864e-41 5.97934e-41 5.9806e-41 5.98228e-41 5.98425e-41 5.98691e-41 5.98985e-41 5.99321e-41 5.99672e-41 6.00106e-41 6.00583e-41 6.01283e-41 6.02138e-41 6.03133e-41 6.04226e-41 6.05123e-41 6.05417e-41 6.05011e-41 6.0431e-41 6.0403e-41 6.04632e-41 6.06944e-41 6.1098e-41 6.13054e-41 6.10952e-41 6.07701e-41 6.06034e-41 6.0623e-41 6.0815e-41 2.01906e-28 4.90967e-13 0.000836907 0.998328 0.000834883 4.88522e-13 1.99868e-28 6.01844e-41 6.0033e-41 5.99237e-41 5.98817e-41 5.99419e-41 5.99994e-41 5.99125e-41 5.98074e-41 5.9778e-41 5.97738e-41 5.97738e-41 5.97738e-41 5.97738e-41;
   (1) 5.8081e-41 5.8081e-41 5.8081e-41 5.8081e-41 5.8081e-41 5.8081e-41 5.8081e-41 5.8081e-41 5.8081e-41 5.8081e-41 5.8081e-41 5.8081e-41 5.8081e-41 5.8081e-41 5.8081e-41 5.8081e-41 5.8081e-41 5.8081e-41 5.8081e-41 5.8081e-41 5.8081e-41 5.8081e-41 5.8081e-41 5.8081e-41 5.8081e-41 5.8081e-41 5.8081e-41 5.8081e-41 5.8081e-41 5.8081e-41 5.8081e-41 5.8081e-41 5.8081e-41 5.8081e-41 5.8081e-41 5.8081e-41 5.8081e-41 5.8081e-41 5.8081e-41 5.8081e-41 5.8081e-41 5.8081e-41 5.8081e-41 5.8081e-41 5.8081e-41 5.8081e-41 5.80838e-41 5.81118e-41 5.82113e-41 5.83066e-41 5.8266e-41 5.8238e-41 5.83094e-41 1.93588e-28 4.73912e-13 0.000817093 0.998343 0.00083994 4.85306e-13 1.97312e-28 5.93688e-41 5.90157e-41 5.85547e-41 5.8238e-41 5.81189e-41 5.8088e-41 5.8081e-41 5.8081e-41 5.8081e-41 5.8081e-41 5.8081e-41 5.8081e-41 5.8081e-41 5.8081e-41 5.8081e-41 5.8081e-41;
   (80087508) 6.05627e-41 6.05627e-41 6.05627e-41 6.05627e-41 6.05627e-41 6.05627e-41 6.05627e-41 6.05627e-41 6.05627e-41 6.05627e-41 6.05627e-41 6.05627e-41 6.05627e-41 6.05627e-41 6.05627e-41 6.05627e-41 6.05627e-41 6.05627e-41 6.05627e-41 6.05627e-41 6.05627e-41 6.05627e-41 6.05627e-41 6.05627e-41 6.05627e-41 6.05627e-41 6.05627e-41 6.05627e-41 6.05655e-41 6.32168e-41 6.05655e-41 6.05627e-41 6.05627e-41 6.05921e-41 6.11485e-41 6.2149e-41 2.0253e-28 4.89465e-13 0.000835285 0.998329 0.000835282 4.89227e-13 2.00588e-28 6.05627e-41 6.05627e-41 6.05627e-41 6.05627e-41 6.05627e-41 6.05627e-41 6.05627e-41 6.05627e-41 6.05627e-41 6.05627e-41 6.05627e-41 6.05627e-41 6.05627e-41 6.05627e-41 6.05627e-41 6.05627e-41 6.05627e-41 6.05627e-41 6.05627e-41 6.05627e-41 6.05627e-41 6.05627e-41 6.05627e-41 6.05627e-41 6.05627e-41 6.05627e-41 6.05627e-41 6.05627e-41 6.05627e-41 6.05627e-41 6.05627e-41 6.05627e-41 6.05627e-41;
   (6003265) 6.05277e-41 6.05277e-41 6.05277e-41 6.05277e-41 6.05277e-41 6.05277e-41 6.05277e-41 6.05277e-41 6.05277e-41 6.05277e-41 6.05277e-41 6.05277e-41 6.05277e-41 6.05277e-41 6.05277e-41 6.05277e-41 6.05277e-41 6.05277e-41 6.05277e-41 6.05277e-41 6.05277e-41 6.05277e-41 6.05277e-41 6.05277e-41 6.05277e-41 6.05277e-41 6.05277e-41 6.05277e-41 6.05277e-41 6.05277e-41 6.05277e-41 6.05277e-41 6.05277e-41 6.05277e-41 6.05277e-41 6.05277e-41 6.05277e-41 6.05277e-41 6.05277e-41 6.05277e-41 6.05277e-41 6.05277e-41 6.05277e-41 6.05277e-41 6.05277e-41 6.05277e-41 6.05277e-41 6.05277e-41 6.05277e-41 6.05277e-41 6.05277e-41 6.05277e-41 6.05277e-41 6.05277e-41 6.05277e-41 6.05277e-41 6.05277e-41 6.05361e-41 6.06244e-41 6.09439e-41 6.12129e-41 6.09957e-41 6.07519e-41 6.07099e-41 6.06846e-41 6.08051e-41 6.15548e-41 6.31509e-41 6.45074e-41 6.42243e-41 6.28342e-41 2.04152e-28 4.92574e-13 0.000836817 0.998328 0.000834878;
   (1094952099) 6.03455e-41 6.03455e-41 6.03455e-41 6.03455e-41 6.03455e-41 6.03455e-41 6.03455e-41 6.03455e-41 6.03455e-41 6.03455e-41 6.03455e-41 6.03455e-41 6.03525e-41 6.03974e-41 6.18954e-41 6.08808e-41 6.10616e-41 6.08794e-41 6.05711e-41 2.14509e-28 4.87571e-13 0.000856766 0.998303 0.000840263 4.89206e-13 2.01853e-28 6.03469e-41 6.03455e-41 6.03455e-41 6.03455e-41 6.03455e-41 6.03455e-41 6.03455e-41 6.03455e-41 6.03455e-41 6.03455e-41 6.03455e-41 6.03455e-41 6.03455e-41 6.03455e-41 6.03455e-41 6.03455e-41 6.03455e-41 6.03455e-41 6.03455e-41 6.03455e-41 6.03455e-41 6.03455e-41 6.03455e-41 6.03455e-41 6.03455e-41 6.03455e-41 6.03455e-41 6.03455e-41 6.03455e-41 6.03455e-41 6.03455e-41 6.03455e-41 6.03455e-41 6.03455e-41 6.03455e-41 6.03455e-41 6.03455e-41 6.03455e-41 6.03455e-41 6.03455e-41 6.03455e-41 6.03455e-41 6.03455e-41 6.03455e-41 6.03455e-41 6.03455e-41 6.03455e-41 6.03455e-41 6.03455e-41 6.03455e-41;
   (1026295355) 5.97079e-41 5.97079e-41 5.97079e-41 5.97079e-41 5.97079e-41 5.97079e-41 5.97079e-41 5.97079e-41 5.97079e-41 5.97079e-41 5.97079e-41 5.97079e-41 5.97079e-41 5.97079e-41 5.97079e-41 5.97079e-41 5.97079e-41 5.97079e-41 5.97079e-41 5.97079e-41 1.97899e-28 4.89222e-13 0.000855368 0.998321 0.000824082 4.82322e-13 1.97756e-28 5.97079e-41 5.97079e-41 5.97079e-41 5.97079e-41 5.97079e-41 5.97079e-41 5.97079e-41 5.97079e-41 5.97079e-41 5.97079e-41 5.97079e-41 5.97079e-41 5.97079e-41 5.97079e-41 5.97079e-41 5.97079e-41 5.97079e-41 5.97079e-41 5.97079e-41 5.97079e-41 5.97079e-41 5.97079e-41 5.97079e-41 5.97079e-41 5.97079e-41 5.97079e-41 5.97079e-41 5.97079e-41 5.97079e-41 5.97079e-41 5.97079e-41 5.97079e-41 5.97079e-41 5.97079e-41 5.97079e-41 5.97079e-41 5.97079e-41 5.97079e-41 5.97079e-41 5.97079e-41 5.97079e-41 5.97079e-41 5.97079e-41 5.97079e-41 5.97079e-41 5.97079e-41 5.97079e-41 5.97079e-41 5.97079e-41;
   (2) 5.90843e-41 5.90843e-41 5.90843e-41 5.90843e-41 5.90843e-41 5.90843e-41 5.90843e-41 5.90843e-41 5.90843e-41 5.90843e-41 5.90843e-41 5.90843e-41 5.90843e-41 5.90843e-41 5.90843e-41 5.90843e-41 5.90843e-41 5.90843e-41 5.90843e-41 5.90843e-41 5.90843e-41 5.90843e-41 5.90843e-41 5.90843e-41 5.90843e-41 5.90843e-41 5.90843e-41 5.90843e-41 5.90843e-41 5.90843e-41 5.90843e-41 5.90843e-41 5.90843e-41 5.90843e-41 5.90857e-41 5.90956e-41 5.91684e-41 5.94459e-41 5.99546e-41 6.02516e-41 5.99546e-41 5.94459e-41 5.91684e-41 5.90956e-41 5.90857e-41 5.90843e-41 5.90886e-41 5.9111e-41 5.91908e-41 5.93688e-41 1.97399e-28 4.82547e-13 0.000825839 0.998331 0.000843018 4.87103e-13 1.96623e-28 5.91096e-41 5.90857e-41 5.9097e-41 5.92091e-41 5.96309e-41 6.01325e-41 6.01199e-41 5.97892e-41 5.94515e-41 5.92105e-41 5.9111e-41 5.90872e-41 5.90843e-41 5.90843e-41 5.90843e-41 5.90843e-41 5.90843e-41 5.90843e-41 5.90843e-41;
   (3) 6.05627e-41 6.05627e-41 6.05627e-41 6.05627e-41 6.05627e-41 6.05627e-41 6.05627e-41 6.05627e-41 6.05627e-41 6.05627e-41 6.05627e-41 6.05627e-41 6.05627e-41 6.05627e-41 6.05627e-41 6.05627e-41 6.05627e-41 6.05627e-41 6.05627e-41 6.05627e-41 6.05627e-41 6.05627e-41 6.05627e-41 6.05627e-41 6.05627e-41 6.05627e-41 6.05627e-41 6.05627e-41 6.05627e-41 6.05627e-41 6.05627e-41 6.05627e-41 6.05627e-41 6.05627e-41 6.05627e-41 6.05641e-41 6.05683e-41 6.05837e-41 6.06272e-41 6.07253e-41 6.09116e-41 6.11947e-41 6.15282e-41 6.18085e-41 6.19192e-41 6.18085e-41 6.15282e-41 6.11947e-41 6.09116e-41 6.07253e-41 6.06272e-41 6.05837e-41 6.05683e-41 6.05641e-41 6.05627e-41 6.05627e-41 6.05627e-41 6.05627e-41 6.05627e-41 6.05627e-41 6.05627e-41 6.05627e-41 2.00588e-28 4.89227e-13 0.000835282 0.998329 0.000835282 4.89227e-13 2.00588e-28 6.05627e-41 6.05627e-41 6.05627e-41 6.05627e-41 6.05627e-41 6.05627e-41 6.05627e-41;
   (1118574845) 6.05627e-41 6.05627e-41 6.05627e-41 6.05627e-41 6.05627e-41 6.05627e-41 6.05627e-41 6.05627e-41 6.05627e-41 6.05627e-41 6.05627e-41 6.05627e-41 6.05627e-41 6.05627e-41 6.05627e-41 6.05627e-41 6.05627e-41 2.00588e-28 4.89227e-13 0.000835282 0.998329 0.000835293 4.89433e-13 2.01549e-28 6.18225e-41 6.2781e-41 6.26507e-41 6.2205e-41 6.14175e-41 6.07575e-41 6.05795e-41 6.05627e-41 6.05627e-41 6.05627e-41 6.05627e-41 6.05627e-41 6.05627e-41 6.05627e-41 6.05627e-41 6.05627e-41 6.05627e-41 6.05627e-41 6.05627e-41 6.05627e-41 6.05627e-41 6.05627e-41 6.05627e-41 6.05627e-41 6.05627e-41 6.05627e-41 6.05627e-41 6.05627e-41 6.05627e-41 6.05627e-41 6.05627e-41 6.05627e-41 6.05627e-41 6.05627e-41 6.05627e-41 6.05627e-41 6.05627e-41 6.05627e-41 6.05627e-41 6.05627e-41 6.05627e-41 6.05627e-41 6.05627e-41 6.05627e-41 6.05627e-41 6.05627e-41 6.05627e-41 6.05627e-41 6.05627e-41 6.05627e-41 6.05627e-41 6.05627e-41;
   (41719150) 6.05627e-41 6.05627e-41 6.05627e-41 6.05627e-41 6.05627e-41 6.05627e-41 6.05627e-41 6.05627e-41 6.05627e-41 6.05627e-41 6.05627e-41 6.05627e-41 6.05627e-41 6.05627e-41 6.05627e-41 6.05627e-41 6.05627e-41 6.05627e-41 6.05627e-41 6.05627e-41 6.05627e-41 6.05627e-41 6.05627e-41 6.05627e-41 6.05627e-41 6.05627e-41 6.05627e-41 6.05627e-41 6.05627e-41 6.05627e-41 6.05627e-41 6.05627e-41 6.05627e-41 6.05627e-41 6.05627e-41 6.05627e-41 6.05627e-41 6.05627e-41 6.05627e-41 6.05627e-41 6.05627e-41 6.05627e-41 6.05627e-41 6.05627e-41 6.05627e-41 6.05627e-41 6.05627e-41 6.05627e-41 6.05627e-41 6.05627e-41 6.05627e-41 6.05627e-41 6.05627e-41 6.05627e-41 6.05627e-41 6.06076e-41 6.14427e-41 6.29421e-41 2.03501e-28 4.89584e-13 0.000835286 0.998329 0.000835282 4.89227e-13 2.00588e-28 6.05627e-41 6.05627e-41 6.05627e-41 6.05627e-41 6.05627e-41 6.05627e-41 6.05627e-41 6.05627e-41 6.05627e-41 6.05627e-41 6.05627e-41;
   (1015479777) 5.9722e-41 5.9722e-41 5.9722e-41 5.9722e-41 5.9722e-41 5.9722e-41 5.9722e-41 5.9722e-41 5.9722e-41 5.9722e-41 5.9722e-41 5.9722e-41 5.9722e-41 5.9722e-41 5.9722e-41 5.9722e-41 5.9722e-41 1.97799e-28 4.82426e-13 0.000823693 0.998343 0.000832957 5.11611e-13 2.07715e-28 6.26434e-41 6.40565e-41 6.07276e-41 5.97598e-41 5.97276e-41 5.9736e-41 5.97584e-41 5.98509e-41 6.01213e-41 6.03497e-41 6.01886e-41 5.99742e-41 6.00022e-41 6.03427e-41 6.06104e-41 6.02699e-41 5.98677e-41 5.97458e-41 5.97276e-41 5.97234e-41 5.97234e-41 5.97262e-41 5.97304e-41 5.97402e-41 5.97556e-41 5.9778e-41 5.98074e-41 5.98411e-41 5.98719e-41 5.98957e-41 5.99041e-41 5.98957e-41 5.98719e-41 5.98411e-41 5.98074e-41 5.9778e-41 5.97556e-41 5.97402e-41 5.97304e-41 5.97262e-41 5.97234e-41 5.9722e-41 5.9722e-41 5.9722e-41 5.9722e-41 5.9722e-41 5.9722e-41 5.9722e-41 5.9722e-41 5.9722e-41 5.9722e-41 5.9722e-41;
   (80417229) 5.93926e-41 5.93926e-41 5.93926e-41 5.93926e-41 5.93926e-41 5.93926e-41 5.93926e-41 5.93926e-41 5.93926e-41 5.93926e-41 5.93926e-41 5.93926e-41 5.93926e-41 5.93926e-41 5.93926e-41 5.93926e-41 5.93926e-41 5.93926e-41 5.93926e-41 5.93926e-41 5.93926e-41 5.93926e-41 5.93926e-41 5.93926e-41 5.93926e-41 5.93926e-41 5.93926e-41 5.93926e-41 5.93926e-41 5.93926e-41 5.93926e-41 5.93926e-41 5.93926e-41 5.93926e-41 5.93926e-41 5.93926e-41 5.93926e-41 5.9394e-41 5.9401e-41 5.94347e-41 5.95454e-41 5.98158e-41 6.03357e-41 6.11373e-41 6.17258e-41 6.13909e-41 6.07813e-41 2.00697e-28 4.85196e-13 0.000828316 0.998328 0.000843311 4.96068e-13 2.0198e-28 6.01746e-41 5.97402e-41 5.96617e-41 5.95804e-41 5.94697e-41 5.94109e-41 5.93954e-41 5.93926e-41 5.93926e-41 5.93926e-41 5.93926e-41 5.93926e-41 5.93926e-41 5.93926e-41 5.93926e-41 5.93926e-41 5.93926e-41 5.93926e-41 5.93926e-41 5.93926e-41 5.93926e-41 5.93926e-41;
   (51895569) 6.04744e-41 6.04744e-41 6.04744e-41 6.04744e-41 6.04744e-41 6.04744e-41 6.04744e-41 6.04744e-41 6.04744e-41 6.04744e-41 6.04744e-41 6.04744e-41 6.04744e-41 6.04744e-41 6.04744e-41 6.04744e-41 6.04744e-41 6.04744e-41 6.04786e-41 6.05165e-41 6.06524e-41 6.07631e-41 6.06524e-41 6.05165e-41 6.04842e-41 6.05837e-41 6.07715e-41 6.05837e-41 6.048e-41 6.04744e-41 6.04744e-41 6.04744e-41 6.04744e-41 6.04744e-41 6.04744e-41 6.04744e-41 6.04744e-41 6.04744e-41 6.04744e-41 6.04786e-41 6.05193e-41 6.06664e-41 6.07855e-41 6.06664e-41 6.05193e-41 6.04786e-41 6.04772e-41 6.05123e-41 6.06398e-41 2.01187e-28 4.89907e-13 0.000835024 0.998329 0.000836212 4.90094e-13 2.00895e-28 6.06314e-41 6.06608e-41 6.07477e-41 6.08416e-41 6.08822e-41 6.08402e-41 6.07393e-41 6.06286e-41 6.05459e-41 6.05011e-41 6.04828e-41 6.04758e-41 6.04744e-41 6.04744e-41 6.04744e-41 6.04744e-41 6.04744e-41 6.04744e-41 6.04744e-41 6.04744e-41;
   (79875185) 5.96365e-41 5.96365e-41 5.96365e-41 5.96365e-41 5.96365e-41 5.96365e-41 5.96365e-41 5.96365e-41 5.96365e-41 5.96365e-41 5.96365e-41 5.96365e-41 5.96365e-41 5.96365e-41 5.96365e-41 5.96365e-41 5.96365e-41 5.96365e-41 5.96365e-41 5.96365e-41 5.96365e-41 5.96365e-41 5.96365e-41 5.96365e-41 5.96365e-41 5.96365e-41 5.96365e-41 5.96365e-41 5.96365e-41 5.96365e-41 5.96365e-41 5.96365e-41 5.96365e-41 5.96365e-41 5.96365e-41 5.96365e-41 5.96407e-41 5.96617e-41 5.97472e-41 1.98493e-28 4.85873e-13 0.000832225 0.99833 0.000837961 4.90528e-13 2.00114e-28 6.00442e-41 5.97892e-41 5.96813e-41 5.96645e-41 5.97009e-41 5.97962e-41 5.99812e-41 6.02628e-41 6.06188e-41 6.10041e-41 6.13082e-41 6.13138e-41 6.09215e-41 6.03974e-41 6.00134e-41 5.98004e-41 5.96995e-41 5.96575e-41 5.96421e-41 5.96379e-41 5.96365e-41 5.96365e-41 5.96365e-41 5.96365e-41 5.96365e-41 5.96365e-41 5.96365e-41 5.96365e-41 5.96365e-41 5.96365e-41;
   (4) 6.04997e-41 6.04997e-41 6.04997e-41 6.04997e-41 6.04997e-41 6.04997e-41 6.04997e-41 6.04997e-41 6.04997e-41 6.04997e-41 6.04997e-41 6.04997e-41 6.04997e-41 6.04997e-41 6.04997e-41 6.04997e-41 6.04997e-41 6.04997e-41 6.04997e-41 6.04997e-41 6.04997e-41 6.04997e-41 6.04997e-41 6.04997e-41 6.04997e-41 6.04997e-41 6.04997e-41 6.04997e-41 6.04997e-41 6.04997e-41 6.05011e-41 6.05053e-41 6.05207e-41 6.05641e-41 6.06622e-41 6.08486e-41 6.11302e-41 6.14638e-41 6.1744e-41 6.18547e-41 6.1744e-41 6.14638e-41 6.11302e-41 6.08486e-41 6.06846e-41 6.10041e-41 6.1709e-41 2.01857e-28 4.88943e-13 0.000834679 0.998329 0.000836723 4.9161e-13 2.0242e-28 6.13531e-41 6.14497e-41 6.13531e-41 6.11162e-41 6.08584e-41 6.06678e-41 6.05627e-41 6.05193e-41 6.05039e-41 6.05011e-41 6.04997e-41 6.04997e-41 6.04997e-41 6.04997e-41 6.04997e-41 6.04997e-41 6.04997e-41 6.04997e-41 6.04997e-41 6.04997e-41 6.04997e-41 6.04997e-41;
}
probability (H | I) {
   (0) 0.0052356 0.0052356 0.0052356 0.0052356 0.0052356 0.0052356 0.0052356 0.0052356 0.0052356 0.0052356 0.0052356 0.0052356 0.0052356 0.0052356 0.0052356 0.0052356 0.0052356 0.0052356 0.0052356 0.0052356 0.0052356 0.0052356 0.0052356 0.0052356 0.0052356 0.0052356 0.0052356 0.0052356 0.0052356 0.0052356 0.0052356 0.0052356 0.0052356 0.0052356 0.0052356 0.0052356 0.0052356 0.0052356 0.0052356 0.0052356 0.0052356 0.0052356 0.0052356 0.0052356 0.0052356 0.0052356 0.0052356 0.0052356 0.0052356 0.0052356 0.0052356 0.0052356 0.0052356 0.0052356 0.0052356 0.0052356 0.0052356 0.0052356 0.0052356 0.0052356 0.0052356 0.0052356 0.0052356 0.0052356 0.0052356 0.0052356 0.0052356 0.0052356 0.0052356 0.0052356 0.0052356 0.0052356 0.0052356 0.0052356 0.0052356 0.0052356 0.0052356 0.0052356 0.0052356 0.0052356 0.0052356 0.0052356 0.0052356 0.0052356 0.0052356 0.0052356 0.0052356 0.0052356 0.0052356 0.0052356 0.0052356 0.0052356 0.0052356 0.0052356 0.0052356 0.0052356 0.0052356 0.0052356 0.0052356 0.0052356 0.0052356 0.0052356 0.0052356 0.0052356 0.0052356 0.0052356 0.0052356 0.0052356 0.0052356 0.0052356 0.0052356 0.0052356 0.0052356 0.0052356 0.0052356 0.0052356 0.0052356 0.0052356 0.0052356 0.0052356 0.0052356 0.0052356 0.0052356 0.0052356 0.0052356 0.0052356 0.0052356 0.0052356 0.0052356 0.0052356 0.0052356 0.0052356 0.0052356 0.0052356 0.0052356 0.0052356 0.0052356 0.0052356 0.0052356 0.0052356 0.0052356 0.0052356 0.0052356 0.0052356 0.0052356 0.0052356 0.0052356 0.0052356 0.0052356 0.0052356 0.0052356 0.0052356 0.0052356 0.0052356 0.0052356 0.0052356 0.0052356 0.0052356 0.0052356 0.0052356 0.0052356 0.0052356 0.0052356 0.0052356 0.0052356 0.0052356 0.0052356 0.0052356 0.0052356 0.0052356 0.0052356 0.0052356 0.0052356 0.0052356 0.0052356 0.0052356 0.0052356 0.0052356 0.0052356 0.0052356 0.0052356 0.0052356 0.0052356 0.0052356 0.0052356 0.0052356 0.0052356 0.0052356 0.0052356 0.0052356 0.0052356;
   (314591) 1.62861e-16 1.62861e-16 1.62861e-16 1.62861e-16 1.62861e-16 1.62861e-16 1.62861e-16 1.62861e-16 1.62861e-16 1.62861e-16 1.62861e-16 1.62861e-16 1.74859e-16 2.85937e-16 4.65595e-16 7.54923e-16 1.21882e-15 1.95938e-15 3.13664e-15 4.99989e-15 7.93571e-15 1.25425e-14 1.97392e-14 3.09331e-14 4.8268e-14 7.50008e-14 1.1604e-13 1.78777e-13 2.74253e-13 4.18945e-13 6.37243e-13 9.65203e-13 1.45562e-12 2.18606e-12 3.26901e-12 4.86784e-12 7.21765e-12 1.06563e-11 1.56666e-11 2.29355e-11 3.34335e-11 4.85315e-11 7.01504e-11 1.00971e-10 1.44721e-10 2.06551e-10 2.93571e-10 4.15501e-10 5.85644e-10 8.22037e-10 1.14909e-09 1.59974e-09 2.21812e-09 3.06321e-09 4.21367e-09 5.77368e-09 7.8813e-09 1.07181e-08 1.45239e-08 1.96119e-08 2.6393e-08 3.54052e-08 4.73496e-08 6.31452e-08 8.39852e-08 1.11444e-07 1.47564e-07 1.95034e-07 2.5739e-07 3.3929e-07 4.46898e-07 5.88398e-07 7.74705e-07 1.02047e-06 1.34535e-06 1.77598e-06 2.34844e-06 3.11225e-06 4.13494e-06 5.50972e-06 7.36537e-06 9.88067e-06 1.33048e-05 1.79839e-05 2.44044e-05 3.32442e-05 4.54541e-05 6.23626e-05 8.58263e-05 0.000118423 0.000163724 0.000226648 0.000313905 0.000434563 0.000600716 0.000828316 0.00113794 0.00155566 0.00211366 0.0028506 0.00381105 0.00504448 0.00660242 0.00853431 0.010882 0.0136723 0.0169095 0.0205666 0.0245808 0.0288472 0.0332244 0.0375356 0.0415837 0.0451666 0.0480953 0.050213 0.0514102 0.0516362 0.0509018 0.0492758 0.046877 0.0438582 0.0403903 0.0366484 0.0327958 0.0289752 0.0253024 0.021862 0.0187121 0.0158837 0.013387 0.0112139 0.00934766 0.00776091 0.00642468 0.00530798 0.00438045 0.00361386 0.00298257 0.0024641 0.00203904 0.00169077 0.00140535 0.00117127 0.000978975 0.000820679 0.000690026 0.000581821 0.000491912 0.000416951 0.000354196 0.000301464 0.000256981 0.000219317 0.000187321 0.000160056 0.000136753 0.000116798 9.96749e-05 8.49675e-05 7.23251e-05 6.14542e-05 5.21123e-05 4.40893e-05 3.72068e-05 3.13151e-05 2.62805e-05 2.19887e-05 1.83405e-05 1.5248e-05 1.26345e-05 1.04334e-05 8.58559e-06 7.04045e-06 5.75269e-06 4.6836e-06 3.79918e-06 3.07045e-06 2.47235e-06 1.98331e-06 1.58497e-06 1.26189e-06 1.0008e-06 7.9067e-07 6.22264e-07 4.87796e-07 3.80888e-07 2.96241e-07 2.29481e-07 1.77058e-07 1.36062e-07;
   (1019107402) 2.92369e-15 2.92369e-15 2.92369e-15 2.92369e-15 2.92369e-15 2.92369e-15 2.92369e-15 2.92369e-15 2.92369e-15 3.1391e-15 5.13323e-15 8.35847e-15 1.35523e-14 2.18803e-14 3.51755e-14 5.63093e-14 8.97573e-14 1.42466e-13 2.25166e-13 3.54361e-13 5.55315e-13 8.66527e-13 1.34641e-12 2.08317e-12 3.20937e-12 4.92343e-12 7.5208e-12 1.14397e-11 1.73266e-11 2.61315e-11 3.92433e-11 5.86836e-11 8.73814e-11 1.29561e-10 1.91283e-10 2.81211e-10 4.11659e-10 6.00061e-10 8.70969e-10 1.25881e-09 1.81164e-09 2.59616e-09 3.70462e-09 5.26389e-09 7.44769e-09 1.04928e-08 1.472e-08 2.05626e-08 2.86024e-08 3.96169e-08 5.46403e-08 7.50412e-08 1.02623e-07 1.39749e-07 1.89501e-07 2.55882e-07 3.4406e-07 4.60679e-07 6.14239e-07 8.15566e-07 1.07836e-06 1.41994e-06 1.86201e-06 2.4317e-06 3.16279e-06 4.09713e-06 5.28635e-06 6.79395e-06 8.69771e-06 1.10925e-05 1.40938e-05 1.78419e-05 2.25066e-05 2.82928e-05 3.54479e-05 4.42697e-05 5.51166e-05 6.84189e-05 8.46938e-05 0.000104562 0.000128769 0.000158206 0.000193944 0.000237262 0.000289688 0.000353043 0.000429495 0.000521606 0.000632401 0.000765426 0.000924813 0.00111532 0.00134244 0.00161234 0.00193197 0.00230896 0.00275159 0.00326866 0.00386927 0.00456259 0.00535746 0.00626196 0.00728294 0.00842533 0.00969161 0.0110811 0.0125895 0.0142079 0.0159232 0.0177169 0.019566 0.0214424 0.0233147 0.0251476 0.0269037 0.0285453 0.0300351 0.0313379 0.0324228 0.0332636 0.0338405 0.0341411 0.0341606 0.0339022 0.0333762 0.0326002 0.0315977 0.0303968 0.0290289 0.0275279 0.0259275 0.0242614 0.0225615 0.0208564 0.0191723 0.017531 0.0159505 0.0144452 0.0130254 0.0116979 0.0104669 0.00933342 0.00829659 0.00735358 0.00650047 0.00573225 0.00504334 0.00442778 0.00387954 0.00339262 0.00296124 0.0025799 0.00224347 0.00194717 0.00168667 0.00145801 0.00125761 0.00108228 0.000929137 0.000795633 0.000679473 0.000578631 0.000491289 0.000415836 0.000350834 0.000295 0.000247194 0.000206396 0.000171702 0.000142306 0.000117491 9.66285e-05 7.91568e-05 6.45861e-05 5.2485e-05 4.24777e-05 3.42375e-05 2.7482e-05 2.1968e-05 1.74871e-05 1.38619e-05 1.09422e-05 8.60115e-06 6.73247e-06 5.24749e-06 4.07278e-06 3.14767e-06 2.42238e-06 1.85631e-06 1.41649e-06 1.07629e-06;
   (2964414) 4.87279e-16 4.87279e-16 5.2318e-16 8.55534e-16 1.39306e-15 2.25871e-15 3.64671e-15 5.8626e-15 9.38479e-15 1.49593e-14 2.37444e-14 3.75274e-14 5.906e-14 9.2552e-14 1.4442e-13 2.24401e-13 3.4719e-13 5.3489e-13 8.20564e-13 1.25345e-12 1.90661e-12 2.88776e-12 4.35523e-12 6.54048e-12 9.78057e-12 1.45633e-11 2.15932e-11 3.18806e-11 4.68684e-11 6.86094e-11 1.00009e-10 1.4516e-10 2.09802e-10 3.0194e-10 4.32689e-10 6.17435e-10 8.77326e-10 1.24128e-09 1.74882e-09 2.4534e-09 3.42723e-09 4.7673e-09 6.60331e-09 9.10762e-09 1.25086e-08 1.71068e-08 2.32968e-08 3.1593e-08 4.26634e-08 5.73722e-08 7.68288e-08 1.02455e-07 1.36065e-07 1.79961e-07 2.37045e-07 3.10976e-07 4.06333e-07 5.28837e-07 6.85587e-07 8.85429e-07 1.13922e-06 1.46044e-06 1.86559e-06 2.37503e-06 3.01366e-06 3.81198e-06 4.80752e-06 6.04606e-06 7.58424e-06 9.4908e-06 1.18511e-05 1.47698e-05 1.83766e-05 2.28317e-05 2.8333e-05 3.51269e-05 4.35197e-05 5.38901e-05 6.67153e-05 8.25829e-05 0.000102231 0.000126573 0.000156746 0.000194163 0.000240565 0.000298114 0.000369456 0.000457822 0.000567178 0.000702253 0.000868831 0.00107369 0.00132493 0.00163193 0.0020056 0.00245829 0.00300387 0.0036576 0.00443583 0.00535567 0.00643436 0.00768808 0.00913203 0.0107774 0.0126312 0.0146935 0.0169569 0.0194033 0.0220041 0.0247179 0.0274905 0.0302565 0.0329409 0.0354606 0.0377306 0.0396674 0.0411943 0.0422483 0.0427827 0.0427736 0.0422185 0.0411398 0.0395813 0.0376051 0.0352895 0.0327186 0.0299812 0.0271633 0.0243441 0.0215921 0.0189637 0.0165016 0.0142349 0.0121806 0.0103456 0.00872703 0.0073157 0.00609821 0.00505753 0.00417551 0.00343351 0.00281339 0.00229817 0.00187228 0.00152179 0.00123446 0.000999714 0.000808443 0.000652995 0.000526909 0.000424815 0.000342268 0.000275596 0.000221806 0.000178438 0.000143492 0.000115343 9.268e-05 7.44387e-05 5.97579e-05 4.79448e-05 3.84408e-05 3.07962e-05 2.46486e-05 1.97067e-05 1.57359e-05 1.25469e-05 9.98807e-06 7.93663e-06 6.29386e-06 4.98016e-06 3.93135e-06 3.09542e-06 2.43061e-06 1.90303e-06 1.48543e-06 1.15575e-06 8.96263e-07 6.92638e-07 5.33371e-07 4.09235e-07 3.12815e-07 2.38201e-07 1.80679e-07 1.36508e-07 1.02725e-07 7.69914e-08 5.74699e-08 4.27215e-08 3.16273e-08 2.33169e-08;
   (9515830) 1.71981e-16 1.84653e-16 3.01953e-16 4.91662e-16 7.97191e-16 1.28707e-15 2.06915e-15 3.31228e-15 5.27975e-15 8.38039e-15 1.32453e-14 2.0845e-14 3.26656e-14 5.09726e-14 7.92016e-14 1.22542e-13 1.88794e-13 2.89624e-13 4.42419e-13 6.72967e-13 1.01931e-12 1.53733e-12 2.30879e-12 3.45277e-12 5.1414e-12 7.62386e-12 1.12571e-11 1.6551e-11 2.42323e-11 3.53284e-11 5.12893e-11 7.41488e-11 1.06748e-10 1.53032e-10 2.18479e-10 3.10606e-10 4.3977e-10 6.20062e-10 8.70706e-10 1.21767e-09 1.69594e-09 2.35264e-09 3.25048e-09 4.47314e-09 6.13151e-09 8.37178e-09 1.13863e-08 1.5427e-08 2.08216e-08 2.79981e-08 3.75064e-08 5.00579e-08 6.6567e-08 8.81981e-08 1.16439e-07 1.53178e-07 2.00796e-07 2.62287e-07 3.41433e-07 4.42924e-07 5.72629e-07 7.37806e-07 9.47477e-07 1.21279e-06 1.5473e-06 1.96788e-06 2.49511e-06 3.15414e-06 3.97585e-06 4.9979e-06 6.26681e-06 7.83876e-06 9.78414e-06 1.21884e-05 1.51575e-05 1.88241e-05 2.33504e-05 2.89439e-05 3.58597e-05 4.44243e-05 5.50478e-05 6.82533e-05 8.47071e-05 0.000105263 0.000131005 0.000163337 0.000204066 0.000255502 0.000320628 0.000403262 0.000508306 0.000642003 0.000812306 0.00102919 0.00130519 0.00165587 0.00210009 0.00266075 0.00336467 0.00424295 0.0053302 0.00666379 0.00828182 0.0102205 0.0125095 0.0151699 0.0182043 0.0215937 0.0252924 0.0292237 0.0332752 0.037307 0.0411521 0.0446317 0.0475646 0.0497876 0.051168 0.0516225 0.0511196 0.0496903 0.0474201 0.04444 0.0409162 0.0370289 0.0329604 0.0288778 0.0249224 0.0212068 0.0178083 0.0147731 0.0121198 0.0098437 0.00792396 0.00632911 0.00502146 0.00396184 0.00311174 0.00243561 0.00190166 0.00148249 0.00115494 0.000899826 0.000701648 0.000547901 0.00042867 0.00033619 0.000264375 0.000208509 0.000164954 0.000130906 0.000104205 8.31976e-05 6.66085e-05 5.34628e-05 4.30088e-05 3.46639e-05 2.7982e-05 2.26141e-05 1.82902e-05 1.47985e-05 1.19732e-05 9.6831e-06 7.82501e-06 6.31635e-06 5.09104e-06 4.096e-06 3.28868e-06 2.63426e-06 2.10464e-06 1.67678e-06 1.33191e-06 1.0546e-06 8.32275e-07 6.54528e-07 5.12898e-07 4.00428e-07 3.11452e-07 2.41305e-07 1.8623e-07 1.43153e-07 1.09597e-07 8.35677e-08 6.3458e-08 4.79903e-08 3.61405e-08 2.71039e-08 2.02419e-08 1.50537e-08 1.11481e-08 8.22101e-09 6.03693e-09;
   (1052411482) 8.77096e-16 8.77096e-16 8.77096e-16 8.77096e-16 9.41724e-16 1.53996e-15 2.50752e-15 4.06568e-15 6.56406e-15 1.05527e-14 1.68926e-14 2.69269e-14 4.27396e-14 6.75498e-14 1.06307e-13 1.66593e-13 2.59956e-13 4.03919e-13 6.24948e-13 9.62811e-13 1.47702e-12 2.25623e-12 3.43188e-12 5.19795e-12 7.83944e-12 1.1773e-11 1.76051e-11 2.62144e-11 3.88679e-11 5.73856e-11 8.4364e-11 1.23499e-10 1.80021e-10 2.61296e-10 3.77656e-10 5.43516e-10 7.78892e-10 1.11148e-09 1.57934e-09 2.23463e-09 3.1484e-09 4.41706e-09 6.1707e-09 8.58408e-09 1.18911e-08 1.64027e-08 2.25307e-08 3.08183e-08 4.19786e-08 5.69409e-08 7.69155e-08 1.03468e-07 1.38614e-07 1.84941e-07 2.45749e-07 3.25236e-07 4.28723e-07 5.62911e-07 7.36224e-07 9.59198e-07 1.245e-06 1.60998e-06 2.07441e-06 2.66333e-06 3.40758e-06 4.34524e-06 5.52275e-06 6.99726e-06 8.83842e-06 1.11313e-05 1.39796e-05 1.75093e-05 2.18739e-05 2.72597e-05 3.38918e-05 4.20447e-05 5.20488e-05 6.4305e-05 7.92987e-05 9.76108e-05 0.000119951 0.000147166 0.000180277 0.000220514 0.000269346 0.00032854 0.000400205 0.00048685 0.000591468 0.000717596 0.000869409 0.00105184 0.00127061 0.00153237 0.00184479 0.00221662 0.00265769 0.00317896 0.00379237 0.00451075 0.00534739 0.00631569 0.00742844 0.00869714 0.0101309 0.0117351 0.0135104 0.0154516 0.0175457 0.019771 0.0220973 0.0244853 0.0268859 0.0292439 0.0314975 0.0335831 0.0354365 0.0369985 0.0382165 0.0390489 0.0394671 0.0394579 0.0390233 0.0381802 0.0369608 0.0354078 0.0335739 0.0315169 0.0292979 0.0269771 0.024612 0.0222551 0.0199516 0.0177393 0.015648 0.013699 0.0119066 0.0102781 0.00881512 0.00751438 0.00636904 0.00536955 0.00450452 0.00376165 0.00312817 0.00259149 0.00213953 0.00176098 0.00144548 0.00118368 0.000967291 0.000789081 0.000642729 0.000522863 0.000424904 0.000344993 0.0002799 0.000226941 0.000183895 0.000148927 0.000120536 9.74951e-05 7.87984e-05 6.36336e-05 5.13351e-05 4.1365e-05 3.32859e-05 2.67431e-05 2.14485e-05 1.71683e-05 1.37123e-05 1.09259e-05 8.6835e-06 6.88225e-06 5.4386e-06 4.28449e-06 3.36433e-06 2.63289e-06 2.05325e-06 1.59546e-06 1.23515e-06 9.52582e-07 7.31827e-07 5.60019e-07 4.26846e-07 3.24028e-07 2.44979e-07 1.84455e-07 1.38311e-07 1.0328e-07 7.68007e-08;
   (79397631) 2.0884e-16 2.0884e-16 2.0884e-16 2.0884e-16 2.0884e-16 2.0884e-16 2.0884e-16 2.0884e-16 2.0884e-16 2.0884e-16 2.0884e-16 2.0884e-16 2.0884e-16 2.0884e-16 2.24227e-16 3.66672e-16 5.97056e-16 9.68058e-16 1.56293e-15 2.51258e-15 4.02221e-15 6.41136e-15 1.01764e-14 1.60836e-14 2.53125e-14 3.96668e-14 6.18965e-14 9.61753e-14 1.48803e-13 2.29245e-13 3.51687e-13 5.37225e-13 8.17159e-13 1.23767e-12 1.86665e-12 2.80332e-12 4.19204e-12 6.24229e-12 9.25558e-12 1.36653e-11 2.00907e-11 2.94124e-11 4.28766e-11 6.22407e-11 8.99686e-11 1.29504e-10 1.85631e-10 2.64962e-10 3.76639e-10 5.33149e-10 7.51591e-10 1.05524e-09 1.47555e-09 2.05506e-09 2.85084e-09 3.93957e-09 5.42345e-09 7.43878e-09 1.01666e-08 1.38471e-08 1.8798e-08 2.54399e-08 3.43294e-08 4.62009e-08 6.20298e-08 8.31047e-08 1.11143e-07 1.48422e-07 1.97996e-07 2.63959e-07 3.51816e-07 4.69027e-07 6.25735e-07 8.35786e-07 1.11819e-06 1.49917e-06 2.01509e-06 2.71655e-06 3.67447e-06 4.98816e-06 6.798e-06 9.30168e-06 1.27807e-05 1.76328e-05 2.44249e-05 3.39614e-05 4.73854e-05 6.63163e-05 9.30401e-05 0.000130776 0.000184014 0.000258984 0.000364223 0.000511324 0.0007158 0.000997975 0.00138406 0.00190691 0.00260679 0.00353089 0.00473265 0.00626912 0.00819656 0.0105648 0.0134083 0.0167386 0.0205337 0.0247295 0.0292175 0.0338421 0.0384093 0.0426987 0.0464839 0.0495503 0.0517232 0.0528818 0.0529747 0.0520226 0.0501139 0.0473916 0.0440362 0.0402455 0.0362173 0.0321306 0.0281363 0.024353 0.020861 0.0177112 0.014924 0.012498 0.010416 0.00865053 0.00716825 0.00593348 0.00491131 0.00406935 0.00337796 0.00281134 0.00234733 0.00196725 0.00165549 0.00139915 0.00118782 0.00101289 0.000867489 0.000746064 0.000644123 0.000558084 0.000485049 0.000422713 0.000369203 0.000323027 0.000282974 0.000248082 0.000217555 0.000190751 0.000167149 0.000146322 0.000127911 0.000111622 9.72112e-05 8.44607e-05 7.31938e-05 6.32509e-05 5.44933e-05 4.67981e-05 4.00549e-05 3.41627e-05 2.9033e-05 2.45811e-05 2.07332e-05 1.74196e-05 1.45777e-05 1.21511e-05 1.00878e-05 8.34016e-06 6.8672e-06 5.63103e-06 4.59813e-06 3.73911e-06 3.0278e-06 2.44149e-06 1.96044e-06 1.56755e-06 1.24811e-06 9.89521e-07 7.81231e-07 6.14137e-07 4.80762e-07 3.74748e-07 2.90874e-07;
   (20947316) 9.79962e-14 1.52916e-13 2.37601e-13 3.67617e-13 5.66359e-13 8.68832e-13 1.32718e-12 2.01876e-12 3.05763e-12 4.6114e-12 6.92521e-12 1.0356e-11 1.54201e-11 2.28634e-11 3.37557e-11 4.96249e-11 7.26452e-11 1.05892e-10 1.53699e-10 2.22139e-10 3.19698e-10 4.58134e-10 6.53743e-10 9.28888e-10 1.31427e-09 1.85159e-09 2.59749e-09 3.62841e-09 5.04702e-09 6.99044e-09 9.64094e-09 1.324e-08 1.81054e-08 2.46534e-08 3.34269e-08 4.51305e-08 6.06728e-08 8.12209e-08 1.08268e-07 1.43707e-07 1.89939e-07 2.49978e-07 3.276e-07 4.27509e-07 5.55522e-07 7.18818e-07 9.26176e-07 1.18832e-06 1.51826e-06 1.93164e-06 2.44732e-06 3.08769e-06 3.87953e-06 4.85423e-06 6.04894e-06 7.50693e-06 9.27879e-06 1.14233e-05 1.40082e-05 1.71114e-05 2.08228e-05 2.52453e-05 3.04967e-05 3.67109e-05 4.40432e-05 5.26692e-05 6.27914e-05 7.46427e-05 8.84948e-05 0.000104655 0.000123493 0.000145432 0.000170981 0.000200734 0.000235411 0.000275856 0.000323105 0.000378395 0.000443238 0.000519451 0.000609258 0.000715362 0.000841051 0.000990307 0.00116797 0.00137991 0.00163314 0.0019361 0.00229877 0.00273296 0.00325231 0.00387255 0.00461135 0.00548827 0.00652415 0.00774074 0.00915908 0.0107987 0.0126753 0.0147979 0.0171673 0.0197728 0.0225882 0.025572 0.0286638 0.0317853 0.0348431 0.0377302 0.0403333 0.0425393 0.0442445 0.0453618 0.0458284 0.045614 0.0447216 0.0431877 0.041081 0.0384961 0.0355436 0.0323452 0.0290203 0.0256833 0.0224306 0.0193428 0.0164797 0.0138813 0.0115672 0.00954284 0.00779962 0.00632056 0.00508217 0.00405773 0.00321943 0.00254012 0.00199444 0.00155952 0.00121519 0.000944182 0.000731944 0.000566455 0.000437859 0.000338208 0.000261157 0.000201672 0.000155793 0.000120424 9.31628e-05 7.21404e-05 5.59188e-05 4.33909e-05 3.37042e-05 2.62044e-05 2.03901e-05 1.58758e-05 1.23663e-05 9.63431e-06 7.50521e-06 5.84466e-06 4.54849e-06 3.53645e-06 2.74619e-06 2.12928e-06 1.64801e-06 1.27285e-06 9.80829e-07 7.53876e-07 5.77847e-07 4.41615e-07 3.36443e-07 2.55474e-07 1.9333e-07 1.45782e-07 1.09528e-07 8.19801e-08 6.11259e-08 4.53991e-08 3.35846e-08 2.47451e-08 1.81584e-08 1.32704e-08 9.65819e-09 7.00009e-09 5.05247e-09 3.63149e-09 2.59917e-09 1.85247e-09 1.31475e-09 9.29154e-10 6.53876e-10 4.5821e-10 3.19733e-10;
   (80431643) 4.38566e-15 4.38566e-15 4.38566e-15 4.38566e-15 4.38566e-15 4.38566e-15 4.38566e-15 4.38566e-15 4.38566e-15 4.38566e-15 4.38566e-15 4.38566e-15 4.38566e-15 4.38566e-15 4.70879e-15 7.70008e-15 1.25381e-14 2.03291e-14 3.28214e-14 5.27649e-14 8.44665e-14 1.3464e-13 2.13706e-13 3.37759e-13 5.31557e-13 8.32997e-13 1.29983e-12 2.01968e-12 3.12484e-12 4.8142e-12 7.38536e-12 1.12816e-11 1.716e-11 2.59907e-11 3.91984e-11 5.88666e-11 8.8028e-11 1.31076e-10 1.94347e-10 2.86933e-10 4.21829e-10 6.17507e-10 9.00115e-10 1.30649e-09 1.88827e-09 2.71752e-09 3.89432e-09 5.55702e-09 7.89593e-09 1.11716e-08 1.5739e-08 2.20796e-08 3.08429e-08 4.29013e-08 5.94205e-08 8.19507e-08 1.12543e-07 1.539e-07 2.09559e-07 2.84136e-07 3.83616e-07 5.15725e-07 6.90383e-07 9.20265e-07 1.22148e-06 1.6144e-06 2.12464e-06 2.78427e-06 3.6332e-06 4.72081e-06 6.10794e-06 7.86909e-06 1.0095e-05 1.28954e-05 1.64028e-05 2.07756e-05 2.62022e-05 3.2906e-05 4.11495e-05 5.12395e-05 6.3533e-05 7.84417e-05 9.6438e-05 0.000118061 0.000143919 0.000174699 0.000211165 0.000254165 0.000304632 0.000363585 0.000432125 0.000511439 0.000602789 0.000707511 0.000827001 0.000962714 0.00111614 0.00128882 0.00148229 0.00169811 0.00193783 0.00220298 0.0024951 0.00281568 0.00316619 0.0035481 0.00396285 0.0044119 0.00489671 0.00541875 0.00597956 0.00658065 0.00722358 0.00790987 0.008641 0.00941827 0.0102428 0.0111152 0.0120356 0.0130036 0.0140175 0.0150747 0.0161712 0.0173013 0.0184577 0.0196311 0.0208103 0.0219823 0.0231319 0.0242427 0.0252969 0.0262757 0.02716 0.0279312 0.0285711 0.0290635 0.0293941 0.0295515 0.0295278 0.0293185 0.0289233 0.0283461 0.0275949 0.0266813 0.0256208 0.0244316 0.0231344 0.0217517 0.0203066 0.0188227 0.0173229 0.0158291 0.0143613 0.0129372 0.0115721 0.0102786 0.00906628 0.007942 0.00690996 0.00597186 0.00512724 0.00437374 0.00370751 0.00312351 0.00261584 0.00217806 0.00180348 0.00148537 0.00121713 0.000992502 0.000805612 0.000651082 0.000524055 0.000420208 0.000335745 0.000267376 0.000212277 0.000168053 0.000132689 0.000104505 8.21123e-05 6.43717e-05 5.03526e-05 3.9301e-05 3.06082e-05 2.37854e-05 1.84415e-05 1.42646e-05 1.10067e-05 8.47104e-06 6.50201e-06;
   (3014218) 2.92365e-16 2.92365e-16 3.13908e-16 5.13319e-16 8.35825e-16 1.35522e-15 2.18801e-15 3.51756e-15 5.63083e-15 8.97555e-15 1.42466e-14 2.25165e-14 3.54355e-14 5.55313e-14 8.66525e-14 1.3464e-13 2.08315e-13 3.20934e-13 4.92344e-13 7.52071e-13 1.14397e-12 1.73264e-12 2.61315e-12 3.92429e-12 5.8684e-12 8.73809e-12 1.29559e-11 1.91282e-11 2.81209e-11 4.11658e-11 6.00059e-11 8.70966e-11 1.25882e-10 1.81165e-10 2.59616e-10 3.70463e-10 5.26398e-10 7.44779e-10 1.04931e-09 1.47204e-09 2.05638e-09 2.86046e-09 3.96212e-09 5.46476e-09 7.50553e-09 1.02648e-08 1.39792e-08 1.8958e-08 2.56022e-08 3.44303e-08 4.61098e-08 6.14954e-08 8.16767e-08 1.0804e-07 1.42333e-07 1.86762e-07 2.44087e-07 3.17773e-07 4.12116e-07 5.32495e-07 6.85539e-07 8.79448e-07 1.12443e-06 1.43301e-06 1.82069e-06 2.30668e-06 2.91464e-06 3.67406e-06 4.62151e-06 5.80253e-06 7.27444e-06 9.10903e-06 1.13967e-05 1.4253e-05 1.78243e-05 2.22982e-05 2.79167e-05 3.49918e-05 4.39276e-05 5.52519e-05 6.96495e-05 8.8025e-05 0.000111551 0.000141782 0.000180746 0.000231113 0.00029637 0.000381076 0.000491168 0.000634303 0.00082031 0.00106171 0.00137418 0.00177716 0.00229432 0.0029538 0.00378835 0.00483468 0.00613234 0.0077218 0.009641 0.0119214 0.0145835 0.0176274 0.021033 0.0247477 0.0286885 0.0327396 0.0367542 0.0405638 0.043991 0.0468609 0.0490204 0.0503499 0.0507791 0.0502905 0.0489224 0.046764 0.0439452 0.0406224 0.0369636 0.0331339 0.0292846 0.025544 0.0220116 0.0187576 0.0158253 0.0132325 0.0109781 0.00904713 0.00741408 0.00604829 0.00491677 0.00398689 0.00322759 0.00261093 0.00211204 0.00170961 0.00138561 0.00112497 0.000915334 0.000746581 0.000610542 0.00050067 0.000411708 0.000339468 0.000280625 0.000232533 0.000193086 0.000160624 0.000133815 0.000111602 9.31447e-05 7.77626e-05 6.49176e-05 5.41684e-05 4.51612e-05 3.76078e-05 3.1269e-05 2.59506e-05 2.14906e-05 1.77539e-05 1.46283e-05 1.20179e-05 9.84324e-06 8.0357e-06 6.53783e-06 5.3004e-06 4.28147e-06 3.44547e-06 2.76211e-06 2.20562e-06 1.75425e-06 1.38963e-06 1.09637e-06 8.61414e-07 6.74046e-07 5.25227e-07 4.07564e-07 3.14939e-07 2.42339e-07 1.85691e-07 1.41681e-07 1.0765e-07 8.14442e-08 6.13566e-08 4.60289e-08 3.43829e-08 2.5575e-08 1.89423e-08 1.39705e-08;
   (1032480996) 3.84989e-15 6.2688e-15 1.01642e-14 1.64101e-14 2.63814e-14 4.22316e-14 6.73175e-14 1.06849e-13 1.68873e-13 2.65769e-13 4.16482e-13 6.4989e-13 1.0098e-12 1.56236e-12 2.40701e-12 3.69254e-12 5.64055e-12 8.5797e-12 1.29949e-11 1.95984e-11 2.94322e-11 4.40123e-11 6.55355e-11 9.71693e-11 1.43461e-10 2.10906e-10 3.08741e-10 4.5004e-10 6.5322e-10 9.44093e-10 1.35871e-09 1.94708e-09 2.77841e-09 3.94781e-09 5.5856e-09 7.86923e-09 1.10394e-08 1.5421e-08 2.145e-08 2.97095e-08 4.09745e-08 5.6271e-08 7.69493e-08 1.0478e-07 1.4207e-07 1.91815e-07 2.57878e-07 3.45225e-07 4.60196e-07 6.1086e-07 8.07411e-07 1.0627e-06 1.39281e-06 1.81775e-06 2.36237e-06 3.05727e-06 3.94002e-06 5.05646e-06 6.4624e-06 8.22504e-06 1.04256e-05 1.31611e-05 1.65471e-05 2.07212e-05 2.58458e-05 3.21122e-05 3.97451e-05 4.90075e-05 6.02058e-05 7.36973e-05 8.98972e-05 0.000109287 0.000132423 0.000159951 0.000192617 0.000231285 0.00027695 0.000330763 0.000394051 0.000468345 0.000555404 0.00065725 0.000776203 0.000914909 0.00107638 0.00126403 0.00148171 0.00173371 0.00202484 0.0023604 0.00274615 0.00318837 0.00369374 0.0042693 0.00492232 0.00566017 0.00649003 0.00741873 0.00845226 0.00959546 0.0108515 0.0122213 0.0137034 0.0152922 0.0169789 0.0187497 0.0205864 0.0224654 0.0243584 0.0262322 0.0280498 0.0297712 0.0313544 0.032758 0.033942 0.0348705 0.0355128 0.0358463 0.0358569 0.0355402 0.0349024 0.0339594 0.0327367 0.0312675 0.0295916 0.0277531 0.0257982 0.0237729 0.0217212 0.0196841 0.0176969 0.0157898 0.0139862 0.0123036 0.0107534 0.00934148 0.00806911 0.00693357 0.00592916 0.00504793 0.00428047 0.00361651 0.00304556 0.0025572 0.00214148 0.00178906 0.00149143 0.00124087 0.00103055 0.000854431 0.00070727 0.000584546 0.000482375 0.000397446 0.00032695 0.000268516 0.000220144 0.000180155 0.000147144 0.000119933 9.75384e-05 7.91395e-05 6.40516e-05 5.17034e-05 4.16202e-05 3.34057e-05 2.67309e-05 2.13219e-05 1.69515e-05 1.34309e-05 1.06043e-05 8.34231e-06 6.53873e-06 5.10575e-06 3.97155e-06 3.07728e-06 2.37496e-06 1.82561e-06 1.39767e-06 1.06568e-06 8.09223e-07 6.11953e-07 4.60849e-07 3.45612e-07 2.58106e-07 1.91948e-07 1.42147e-07 1.04824e-07 7.69739e-08 5.62849e-08 4.09823e-08;
   (9496683) 1.75419e-16 1.75419e-16 1.75419e-16 1.75419e-16 1.88346e-16 3.07991e-16 5.01495e-16 8.13127e-16 1.3128e-15 2.11052e-15 3.37848e-15 5.38533e-15 8.54793e-15 1.35102e-14 2.12614e-14 3.33188e-14 5.19918e-14 8.07842e-14 1.24988e-13 1.92559e-13 2.95408e-13 4.51242e-13 6.86378e-13 1.03959e-12 1.56789e-12 2.35457e-12 3.52104e-12 5.24285e-12 7.77367e-12 1.14773e-11 1.68727e-11 2.46996e-11 3.6004e-11 5.22589e-11 7.55305e-11 1.087e-10 1.55773e-10 2.22286e-10 3.15854e-10 4.46903e-10 6.29638e-10 8.83348e-10 1.23404e-09 1.7166e-09 2.3779e-09 3.27999e-09 4.5053e-09 6.16232e-09 8.39366e-09 1.13853e-08 1.53796e-08 2.06891e-08 2.7718e-08 3.69846e-08 4.91513e-08 6.50626e-08 8.57933e-08 1.12694e-07 1.47474e-07 1.92294e-07 2.49859e-07 3.23556e-07 4.17647e-07 5.37465e-07 6.89689e-07 8.82726e-07 1.1271e-06 1.43613e-06 1.82662e-06 2.31989e-06 2.94307e-06 3.73092e-06 4.72811e-06 5.99223e-06 7.59811e-06 9.64336e-06 1.22557e-05 1.56032e-05 1.99083e-05 2.54658e-05 3.26681e-05 4.2039e-05 5.42813e-05 7.0335e-05 9.14618e-05 0.000119357 0.000156295 0.000205321 0.000270493 0.000357222 0.000472638 0.000626087 0.000829728 0.0010992 0.00145415 0.00191912 0.00252392 0.00330403 0.00430006 0.00555696 0.0071219 0.00904095 0.0113538 0.0140892 0.0172548 0.0208337 0.0247748 0.0289874 0.0333436 0.0376793 0.0418023 0.0455078 0.0485979 0.0508943 0.0522654 0.0526331 0.0519864 0.0503777 0.0479183 0.0447631 0.0410954 0.0371083 0.0329865 0.0288942 0.0249665 0.0213038 0.0179723 0.0150085 0.0124207 0.0101996 0.00832059 0.00675096 0.00545404 0.00439209 0.00352916 0.00283218 0.00227202 0.00182333 0.00146478 0.0011787 0.000950477 0.000768368 0.000622877 0.00050641 0.000412956 0.000337762 0.000277066 0.000227902 0.000187932 0.000155326 0.000128624 0.000106683 8.8594e-05 7.36351e-05 6.12285e-05 5.09195e-05 4.23335e-05 3.51737e-05 2.91969e-05 2.42037e-05 2.00329e-05 1.65499e-05 1.36439e-05 1.12217e-05 9.2061e-06 7.53188e-06 6.14421e-06 4.99695e-06 4.05103e-06 3.27315e-06 2.6357e-06 2.11489e-06 1.69091e-06 1.34692e-06 1.06893e-06 8.4508e-07 6.65524e-07 5.22081e-07 4.07927e-07 3.1747e-07 2.46076e-07 1.89968e-07 1.46056e-07 1.11836e-07 8.5277e-08 6.47595e-08 4.89726e-08 3.68803e-08 2.76581e-08 2.06545e-08 1.536e-08;
   (3014208) 3.50839e-16 3.50839e-16 3.7669e-16 6.15984e-16 1.00299e-15 1.62628e-15 2.62563e-15 4.22107e-15 6.757e-15 1.07708e-14 1.7096e-14 2.70201e-14 4.25229e-14 6.66375e-14 1.03983e-13 1.61569e-13 2.49979e-13 3.85125e-13 5.90811e-13 9.02493e-13 1.37276e-12 2.07918e-12 3.13577e-12 4.70915e-12 7.04209e-12 1.04857e-11 1.55471e-11 2.29538e-11 3.3745e-11 4.93988e-11 7.20066e-11 1.04516e-10 1.51058e-10 2.17398e-10 3.11542e-10 4.44557e-10 6.31675e-10 8.93738e-10 1.25916e-09 1.76646e-09 2.46765e-09 3.43255e-09 4.7545e-09 6.55766e-09 9.00674e-09 1.23177e-08 1.6775e-08 2.27495e-08 3.07222e-08 4.13152e-08 5.53294e-08 7.37914e-08 9.80061e-08 1.29636e-07 1.70778e-07 2.24076e-07 2.92844e-07 3.81213e-07 4.94352e-07 6.38649e-07 8.22061e-07 1.05438e-06 1.34769e-06 1.71692e-06 2.18039e-06 2.76075e-06 3.48589e-06 4.3901e-06 5.516e-06 6.91619e-06 8.65593e-06 1.08167e-05 1.35003e-05 1.68342e-05 2.09787e-05 2.6137e-05 3.25652e-05 4.05907e-05 5.06293e-05 6.32122e-05 7.90218e-05 9.89357e-05 0.000124073 0.000155882 0.000196226 0.000247483 0.000312728 0.00039587 0.000501896 0.000637159 0.000809613 0.00102924 0.0013084 0.00166218 0.0021088 0.00266985 0.00337036 0.00423868 0.00530583 0.00660439 0.00816667 0.0100221 0.0121944 0.0146964 0.0175263 0.0206637 0.0240643 0.0276586 0.0313502 0.0350192 0.0385271 0.0417242 0.0444624 0.0466053 0.0480433 0.0487007 0.0485447 0.0475903 0.0458935 0.0435498 0.0406839 0.0374357 0.0339515 0.0303703 0.0268151 0.0233905 0.0201749 0.0172225 0.0145655 0.0122159 0.0101697 0.00841264 0.00692135 0.00566899 0.00462653 0.00376544 0.00305863 0.0024815 0.00201211 0.0016316 0.00132378 0.00107507 0.000874276 0.000712118 0.000581094 0.000475092 0.000389203 0.000319462 0.000262709 0.000216409 0.000178544 0.000147495 0.000121969 0.000100931 8.35571e-05 6.91773e-05 5.72568e-05 4.73604e-05 3.91373e-05 3.23009e-05 2.66159e-05 2.18906e-05 1.79654e-05 1.47084e-05 1.20102e-05 9.77901e-06 7.93813e-06 6.42311e-06 5.17962e-06 4.16243e-06 3.33281e-06 2.65868e-06 2.11282e-06 1.67251e-06 1.31877e-06 1.03569e-06 8.1009e-07 6.31038e-07 4.89546e-07 3.78211e-07 2.90977e-07 2.2293e-07 1.7008e-07 1.29214e-07 9.7753e-08 7.36407e-08 5.52414e-08 4.12633e-08 3.06919e-08 2.27323e-08 1.67653e-08;
   (792781074) 7.69978e-15 1.25376e-14 2.03283e-14 3.28201e-14 5.27628e-14 8.44632e-14 1.34635e-13 2.13697e-13 3.37746e-13 5.31537e-13 8.32964e-13 1.29978e-12 2.0196e-12 3.12472e-12 4.81402e-12 7.38507e-12 1.12811e-11 1.71594e-11 2.59897e-11 3.91969e-11 5.88644e-11 8.80247e-11 1.31071e-10 1.9434e-10 2.86924e-10 4.21815e-10 6.17488e-10 9.00092e-10 1.30646e-09 1.88824e-09 2.7175e-09 3.89434e-09 5.55713e-09 7.89624e-09 1.11723e-08 1.57406e-08 2.20828e-08 3.08493e-08 4.29134e-08 5.94431e-08 8.19923e-08 1.12619e-07 1.54035e-07 2.09798e-07 2.84553e-07 3.84338e-07 5.16961e-07 6.92482e-07 9.23795e-07 1.22736e-06 1.62412e-06 2.14056e-06 2.8101e-06 3.67475e-06 4.78708e-06 6.21274e-06 8.03338e-06 1.03503e-05 1.32889e-05 1.7004e-05 2.16862e-05 2.75699e-05 3.49426e-05 4.41564e-05 5.56413e-05 6.99219e-05 8.76358e-05 0.000109557 0.00013662 0.000169951 0.000210902 0.000261086 0.000322415 0.000397145 0.000487917 0.000597795 0.000730306 0.000889462 0.00107978 0.00130629 0.00157449 0.00189032 0.00226005 0.00269022 0.00318741 0.00375808 0.00440834 0.00514364 0.00596846 0.006886 0.00789782 0.00900348 0.0102003 0.011483 0.0128435 0.0142709 0.0157515 0.0172687 0.0188034 0.0203343 0.0218384 0.0232918 0.0246699 0.0259487 0.0271051 0.0281182 0.0289695 0.0296437 0.0301295 0.0304194 0.0305106 0.0304046 0.0301069 0.0296273 0.0289788 0.0281777 0.0272422 0.0261925 0.0250493 0.023834 0.0225671 0.0212684 0.0199563 0.0186473 0.0173558 0.0160942 0.0148727 0.0136992 0.0125798 0.0115185 0.0105179 0.00957906 0.00870203 0.00788584 0.00712885 0.00642891 0.00578352 0.00518996 0.00464542 0.00414704 0.00369202 0.00327759 0.00290111 0.00256001 0.00225184 0.00197426 0.00172504 0.00150201 0.00130312 0.00112643 0.000970038 0.00083217 0.000711125 0.000605293 0.000513158 0.000433294 0.000364371 0.000305157 0.000254511 0.000211391 0.000174845 0.000144012 0.000118119 9.64745e-05 7.84639e-05 6.35463e-05 5.12473e-05 4.11538e-05 3.29084e-05 2.62034e-05 2.07761e-05 1.6403e-05 1.28954e-05 1.00948e-05 7.86894e-06 6.10779e-06 4.72068e-06 3.63308e-06 2.78418e-06 2.12457e-06 1.61434e-06 1.22144e-06 9.20231e-07 6.90357e-07 5.15705e-07 3.83602e-07 2.84125e-07 2.09551e-07 1.53894e-07 1.12539e-07 8.19475e-08;
   (35489133) 2.19993e-15 3.58217e-15 5.80811e-15 9.37723e-15 1.50751e-14 2.41323e-14 3.84671e-14 6.10566e-14 9.64989e-14 1.51868e-13 2.37989e-13 3.71366e-13 5.77029e-13 8.92783e-13 1.37544e-12 2.11002e-12 3.22317e-12 4.90269e-12 7.42564e-12 1.11991e-11 1.68184e-11 2.51499e-11 3.74488e-11 5.55253e-11 8.19778e-11 1.20518e-10 1.76424e-10 2.57166e-10 3.73269e-10 5.39481e-10 7.76407e-10 1.11261e-09 1.58767e-09 2.2559e-09 3.19178e-09 4.4967e-09 6.30823e-09 8.81203e-09 1.22572e-08 1.69768e-08 2.34141e-08 3.21548e-08 4.39714e-08 5.9875e-08 8.11844e-08 1.09611e-07 1.47364e-07 1.97278e-07 2.62982e-07 3.49083e-07 4.61419e-07 6.07323e-07 7.96001e-07 1.0389e-06 1.35025e-06 1.74757e-06 2.25236e-06 2.89095e-06 3.69527e-06 4.70411e-06 5.96401e-06 7.53102e-06 9.47209e-06 1.18667e-05 1.48096e-05 1.84128e-05 2.2808e-05 2.81513e-05 3.46254e-05 4.2446e-05 5.18657e-05 6.31823e-05 7.67441e-05 9.29647e-05 0.000112329 0.00013541 0.000162888 0.000195566 0.000234403 0.000280535 0.000335317 0.000400359 0.00047758 0.000569263 0.000678127 0.00080738 0.000960832 0.00114295 0.00135897 0.00161502 0.00191814 0.00227647 0.00269917 0.0031966 0.00378014 0.0044622 0.00525595 0.00617499 0.00723286 0.00844242 0.00981475 0.0113585 0.0130784 0.0149738 0.0170373 0.0192539 0.0215985 0.024037 0.0265249 0.0290078 0.0314228 0.0337015 0.0357718 0.0375627 0.0390075 0.0400497 0.0406451 0.0407664 0.0404047 0.0395708 0.0382948 0.036623 0.0346162 0.0323443 0.0298835 0.0273094 0.0246947 0.0221054 0.0195975 0.0172162 0.0149956 0.0129579 0.0111154 0.00947142 0.00802236 0.00675875 0.00566758 0.00473342 0.00393976 0.00326991 0.00270776 0.00223825 0.00184766 0.00152376 0.00125584 0.00103462 0.000852197 0.000701883 0.000578072 0.000476094 0.000392084 0.000322848 0.000265763 0.000218672 0.000179809 0.000147725 0.000121235 9.93627e-05 8.13092e-05 6.64157e-05 5.41406e-05 4.40346e-05 3.57265e-05 2.89083e-05 2.33247e-05 1.87625e-05 1.50445e-05 1.20232e-05 9.57551e-06 7.59878e-06 6.00801e-06 4.73244e-06 3.71343e-06 2.90244e-06 2.25958e-06 1.75205e-06 1.35303e-06 1.04061e-06 7.97032e-07 6.07945e-07 4.61788e-07 3.49302e-07 2.63111e-07 1.97353e-07 1.47406e-07 1.09635e-07 8.11982e-08 5.98827e-08 4.39757e-08 3.21574e-08 2.34154e-08;
   (123) 4.38654e-15 4.38654e-15 4.38654e-15 4.38654e-15 4.38654e-15 4.38654e-15 4.38654e-15 4.38654e-15 4.38654e-15 4.38654e-15 4.38654e-15 4.38654e-15 4.38654e-15 4.38654e-15 4.38654e-15 4.38654e-15 4.38654e-15 4.38654e-15 4.38654e-15 4.38654e-15 4.38654e-15 4.70974e-15 7.70162e-15 1.25406e-14 2.03332e-14 3.2828e-14 5.27755e-14 8.44836e-14 1.34667e-13 2.13749e-13 3.37828e-13 5.31667e-13 8.3317e-13 1.30011e-12 2.02011e-12 3.12553e-12 4.81529e-12 7.3871e-12 1.12844e-11 1.71646e-11 2.59982e-11 3.92108e-11 5.88877e-11 8.80642e-11 1.31139e-10 1.94457e-10 2.8713e-10 4.22182e-10 6.18143e-10 9.01268e-10 1.30858e-09 1.89205e-09 2.72434e-09 3.90661e-09 5.57903e-09 7.93512e-09 1.1241e-08 1.5861e-08 2.22926e-08 3.1212e-08 4.35361e-08 6.05037e-08 8.37843e-08 1.15622e-07 1.59027e-07 2.18028e-07 2.98008e-07 4.0615e-07 5.52024e-07 7.48365e-07 1.0121e-06 1.36572e-06 1.83904e-06 2.47154e-06 3.31544e-06 4.43964e-06 5.93484e-06 7.9201e-06 1.05512e-05 1.40309e-05 1.86226e-05 2.46657e-05 3.25959e-05 4.29684e-05 5.64857e-05 7.40305e-05 9.67024e-05 0.000125859 0.000163161 0.00021062 0.000270646 0.000346095 0.000440309 0.000557151 0.000701024 0.000876874 0.00109017 0.00134684 0.0016532 0.00201584 0.00244143 0.00293653 0.00350734 0.0041594 0.00489732 0.00572437 0.00664223 0.00765061 0.00874695 0.00992625 0.0111808 0.0125003 0.0138717 0.0152793 0.0167052 0.0181298 0.019532 0.02089 0.0221817 0.0233859 0.0244827 0.0254539 0.0262843 0.0269615 0.0274768 0.0278253 0.0280057 0.0280206 0.0278762 0.0275816 0.0271489 0.0265919 0.0259263 0.0251684 0.0243349 0.0234421 0.0225056 0.0215399 0.0205577 0.0195706 0.0185878 0.0176172 0.0166648 0.0157352 0.0148316 0.013956 0.0131097 0.0122932 0.0115064 0.0107492 0.0100211 0.00932159 0.00865043 0.00800726 0.00739191 0.00680434 0.00624459 0.00571274 0.00520893 0.00473326 0.00428579 0.00386646 0.00347512 0.00311147 0.00277503 0.0024652 0.0021812 0.00192212 0.00168689 0.00147437 0.00128328 0.00111232 0.0009601 0.00082524 0.000706341 0.000602026 0.000510951 0.00043182 0.0003634 0.000304526 0.000254108 0.000211138 0.00017469 0.00014392 0.000118067 9.64468e-05 7.84509e-05 6.35418e-05 5.12475e-05 4.11563e-05 3.29118e-05;
   (79278774) 2.9749e-14 4.64212e-14 7.21293e-14 1.11597e-13 1.71928e-13 2.63754e-13 4.02894e-13 6.1284e-13 9.28219e-13 1.39989e-12 2.1023e-12 3.1438e-12 4.68106e-12 6.94065e-12 1.02475e-11 1.50649e-11 2.20528e-11 3.21457e-11 4.66584e-11 6.74352e-11 9.70515e-11 1.3908e-10 1.9846e-10 2.81983e-10 3.98974e-10 5.62088e-10 7.88512e-10 1.10149e-09 1.53215e-09 2.1221e-09 2.92671e-09 4.01928e-09 5.4963e-09 7.48414e-09 1.01476e-08 1.37006e-08 1.84192e-08 2.46572e-08 3.28684e-08 4.36273e-08 5.76635e-08 7.58921e-08 9.94619e-08 1.29797e-07 1.6867e-07 2.18262e-07 2.81245e-07 3.60876e-07 4.61121e-07 5.86744e-07 7.43492e-07 9.38204e-07 1.17904e-06 1.47567e-06 1.83943e-06 2.28372e-06 2.82407e-06 3.47859e-06 4.26841e-06 5.218e-06 6.35528e-06 7.71297e-06 9.32836e-06 1.12446e-05 1.35118e-05 1.61869e-05 1.93367e-05 2.30389e-05 2.73842e-05 3.24779e-05 3.8446e-05 4.54358e-05 5.36245e-05 6.32241e-05 7.44877e-05 8.77279e-05 0.000103316 0.00012171 0.000143476 0.000169297 0.000200037 0.000236736 0.000280705 0.000333576 0.000397344 0.000474537 0.000568246 0.000682352 0.000821667 0.000992093 0.00120093 0.0014572 0.00177169 0.00215767 0.00263079 0.00320952 0.00391528 0.00477237 0.00580763 0.00704956 0.00852757 0.0102691 0.0122998 0.0146346 0.0172812 0.0202297 0.0234521 0.0268977 0.0304904 0.0341289 0.0376897 0.041032 0.044007 0.0464659 0.0482776 0.0493336 0.0495661 0.0489509 0.0475124 0.0453209 0.0424855 0.0391483 0.0354646 0.0315952 0.0276934 0.0238912 0.020298 0.0169931 0.0140274 0.0114259 0.00919016 0.00730437 0.00574174 0.00446724 0.00344299 0.00263076 0.00199449 0.00150151 0.00112337 0.000835837 0.000618961 0.000456493 0.000335537 0.000245949 0.000179894 0.000131367 9.5819e-05 6.98516e-05 5.09077e-05 3.71106e-05 2.70679e-05 1.97589e-05 1.44406e-05 1.0568e-05 7.74591e-06 5.68705e-06 4.18301e-06 3.08238e-06 2.27555e-06 1.68291e-06 1.2467e-06 9.24999e-07 6.87266e-07 5.11212e-07 3.80593e-07 2.83519e-07 2.11259e-07 1.57417e-07 1.17249e-07 8.7274e-08 6.48945e-08 4.81897e-08 3.57253e-08 2.64329e-08 1.95146e-08 1.43715e-08 1.05551e-08 7.72986e-09 5.64327e-09 4.10656e-09 2.97809e-09 2.15213e-09 1.5495e-09 1.11148e-09 7.94239e-10 5.65319e-10 4.0078e-10 2.82992e-10 1.99016e-10 1.39383e-10 9.72155e-11;
   (1) 4.27765e-16 6.9652e-16 1.12934e-15 1.82335e-15 2.93127e-15 4.69235e-15 7.47968e-15 1.18723e-14 1.8764e-14 2.95298e-14 4.6276e-14 7.22105e-14 1.12201e-13 1.73595e-13 2.67448e-13 4.10283e-13 6.26724e-13 9.53304e-13 1.44388e-12 2.17759e-12 3.27022e-12 4.89035e-12 7.28173e-12 1.07966e-11 1.59403e-11 2.34341e-11 3.43047e-11 5.00044e-11 7.25804e-11 1.04898e-10 1.50969e-10 2.16343e-10 3.08715e-10 4.38649e-10 6.20635e-10 8.74366e-10 1.2266e-09 1.71347e-09 2.38343e-09 3.3012e-09 4.55309e-09 6.25291e-09 8.55091e-09 1.16442e-08 1.57891e-08 2.13194e-08 2.86644e-08 3.83769e-08 5.11654e-08 6.7929e-08 8.98048e-08 1.18232e-07 1.55013e-07 2.02392e-07 2.63163e-07 3.40795e-07 4.39532e-07 5.6461e-07 7.22399e-07 9.2069e-07 1.16889e-06 1.47846e-06 1.86303e-06 2.33926e-06 2.92698e-06 3.65004e-06 4.53704e-06 5.62212e-06 6.94631e-06 8.55876e-06 1.05183e-05 1.28961e-05 1.57773e-05 1.92648e-05 2.34836e-05 2.8584e-05 3.47501e-05 4.22056e-05 5.12243e-05 6.21392e-05 7.53615e-05 9.13959e-05 0.000110857 0.000134517 0.000163306 0.000198387 0.000241179 0.000293433 0.0003573 0.000435409 0.000530981 0.000647919 0.000790975 0.000965828 0.00117933 0.00143956 0.00175608 0.00213992 0.0026038 0.00316206 0.00383055 0.0046265 0.00556774 0.00667265 0.00795865 0.00944086 0.0111316 0.0130371 0.0151568 0.0174808 0.0199889 0.0226469 0.0254101 0.0282195 0.0310054 0.0336877 0.036184 0.0384069 0.0402764 0.0417188 0.0426768 0.0431098 0.0429995 0.0423492 0.041184 0.0395502 0.0375099 0.0351384 0.0325187 0.0297368 0.0268747 0.0240121 0.0212145 0.0185403 0.016033 0.0137232 0.0116305 0.00976356 0.00812151 0.00669684 0.00547594 0.00444203 0.0035761 0.00285837 0.00226916 0.00178999 0.00140355 0.00109438 0.000848895 0.00065532 0.000503645 0.000385517 0.000294023 0.00022351 0.000169422 0.000128098 9.66458e-05 7.27868e-05 5.47417e-05 4.11237e-05 3.08688e-05 2.31599e-05 1.73714e-05 1.30292e-05 9.77391e-06 7.33432e-06 5.50573e-06 4.13485e-06 3.1067e-06 2.33521e-06 1.75585e-06 1.32053e-06 9.93226e-07 7.46918e-07 5.61525e-07 4.21913e-07 3.16766e-07 2.37575e-07 1.77956e-07 1.3309e-07 9.93636e-08 7.40316e-08 5.50359e-08 4.08142e-08 3.01869e-08 2.22638e-08 1.63708e-08 1.19997e-08 8.76643e-09 6.38263e-09 4.63047e-09;
   (80087508) 2.92369e-15 2.92369e-15 2.92369e-15 2.92369e-15 2.92369e-15 2.92369e-15 2.92369e-15 2.92369e-15 2.92369e-15 3.1391e-15 5.13323e-15 8.35847e-15 1.35523e-14 2.18803e-14 3.51755e-14 5.63093e-14 8.97573e-14 1.42466e-13 2.25166e-13 3.54361e-13 5.55315e-13 8.66527e-13 1.34641e-12 2.08317e-12 3.20937e-12 4.92343e-12 7.5208e-12 1.14397e-11 1.73266e-11 2.61315e-11 3.92434e-11 5.86838e-11 8.73818e-11 1.29562e-10 1.91285e-10 2.81215e-10 4.11667e-10 6.00076e-10 8.71002e-10 1.25887e-09 1.81175e-09 2.59637e-09 3.70501e-09 5.26463e-09 7.44905e-09 1.04952e-08 1.47245e-08 2.05709e-08 2.86173e-08 3.96434e-08 5.46871e-08 7.51231e-08 1.02765e-07 1.39994e-07 1.89919e-07 2.56589e-07 3.45244e-07 4.62649e-07 6.17488e-07 8.20874e-07 1.08698e-06 1.43379e-06 1.88408e-06 2.46659e-06 3.2175e-06 4.18218e-06 5.41747e-06 6.99439e-06 9.00164e-06 1.15496e-05 1.47757e-05 1.88509e-05 2.39874e-05 3.04489e-05 3.85622e-05 4.87329e-05 6.14627e-05 7.73725e-05 9.72298e-05 0.000121979 0.000152783 0.000191066 0.000238567 0.000297399 0.000370116 0.000459782 0.000570055 0.000705249 0.000870416 0.00107139 0.00131486 0.0016083 0.00196005 0.00237908 0.00287499 0.0034576 0.00413676 0.00492189 0.00582138 0.00684217 0.00798893 0.00926352 0.0106642 0.0121853 0.0138163 0.0155419 0.017342 0.0191912 0.0210601 0.0229157 0.0247222 0.0264426 0.0280399 0.0294785 0.0307264 0.0317555 0.0325434 0.033075 0.0333413 0.0333415 0.0330816 0.0325743 0.0318386 0.0308977 0.0297792 0.0285123 0.0271278 0.0256564 0.0241275 0.0225687 0.0210049 0.0194578 0.0179462 0.0164853 0.0150868 0.0137594 0.0125093 0.01134 0.0102526 0.00924695 0.00832121 0.00747244 0.00669717 0.00599114 0.0053499 0.00476887 0.00424346 0.00376919 0.00334176 0.00295711 0.00261147 0.0023013 0.00202339 0.00177477 0.00155273 0.00135482 0.00117879 0.00102258 0.000884298 0.000762245 0.000654824 0.000560587 0.000478196 0.000406417 0.000344116 0.000290251 0.000243865 0.000204083 0.000170108 0.000141217 0.000116755 9.61344e-05 7.88283e-05 6.43694e-05 5.23433e-05 4.23858e-05 3.41785e-05 2.74445e-05 2.19442e-05 1.74723e-05 1.38527e-05 1.09366e-05 8.59772e-06 6.73036e-06 5.24624e-06 4.07204e-06 3.14722e-06 2.42212e-06 1.85616e-06 1.41641e-06 1.07625e-06;
   (6003265) 3.65458e-16 3.65458e-16 3.92386e-16 6.41649e-16 1.04478e-15 1.69404e-15 2.73503e-15 4.39696e-15 7.0386e-15 1.12195e-14 1.78083e-14 2.81459e-14 4.4295e-14 6.94141e-14 1.08316e-13 1.68301e-13 2.60395e-13 4.01173e-13 6.1543e-13 9.40088e-13 1.42997e-12 2.1658e-12 3.26644e-12 4.90536e-12 7.3355e-12 1.09225e-11 1.6195e-11 2.39107e-11 3.51514e-11 5.14571e-11 7.50076e-11 1.08872e-10 1.57354e-10 2.26459e-10 3.24527e-10 4.63093e-10 6.58018e-10 9.31025e-10 1.3117e-09 1.84025e-09 2.57078e-09 3.57617e-09 4.95373e-09 6.83285e-09 9.38549e-09 1.28371e-08 1.7485e-08 2.37165e-08 3.20354e-08 4.30935e-08 5.77332e-08 7.70298e-08 1.02368e-07 1.35499e-07 1.78653e-07 2.34655e-07 3.07058e-07 4.00344e-07 5.20137e-07 6.73501e-07 8.6926e-07 1.11852e-06 1.43516e-06 1.83655e-06 2.34471e-06 2.98712e-06 3.79866e-06 4.82359e-06 6.118e-06 7.75378e-06 9.82306e-06 1.24444e-05 1.57712e-05 2.00034e-05 2.54002e-05 3.23023e-05 4.11554e-05 5.25479e-05 6.72543e-05 8.6298e-05 0.000111027 0.000143225 0.000185252 0.000240195 0.000312123 0.00040633 0.000529704 0.00069109 0.000901749 0.00117594 0.00153123 0.0019891 0.00257528 0.00331958 0.00425578 0.00542047 0.0068513 0.00858445 0.0106509 0.0130721 0.0158537 0.0189831 0.0224198 0.0260981 0.02992 0.0337619 0.0374785 0.0409116 0.0439024 0.0463044 0.0479969 0.048897 0.0489658 0.0482125 0.0466921 0.0444982 0.0417552 0.0386035 0.0351898 0.0316541 0.0281214 0.0246975 0.0214629 0.0184748 0.0157678 0.0133568 0.0112418 0.00940984 0.00784164 0.00651179 0.00539329 0.00445909 0.0036831 0.00304137 0.00251238 0.00207728 0.0017199 0.0014265 0.00118557 0.000987469 0.000824376 0.000689797 0.000578492 0.00048618 0.000409384 0.0003453 0.000291652 0.000246608 0.000208671 0.00017664 0.000149529 0.000126535 0.000107003 9.03917e-05 7.62547e-05 6.42209e-05 5.39797e-05 4.52701e-05 3.78714e-05 3.15968e-05 2.62845e-05 2.17978e-05 1.8018e-05 1.48433e-05 1.21849e-05 9.96631e-06 8.12109e-06 6.5923e-06 5.33054e-06 4.29337e-06 3.4441e-06 2.7517e-06 2.18951e-06 1.73507e-06 1.36924e-06 1.07605e-06 8.42115e-07 6.56279e-07 5.09309e-07 3.93586e-07 3.02877e-07 2.32083e-07 1.77089e-07 1.34552e-07 1.01802e-07 7.66938e-08 5.75344e-08 4.29781e-08 3.19682e-08 2.3678e-08 1.74629e-08;
   (1094952099) 1.09637e-15 1.09637e-15 1.09637e-15 1.09637e-15 1.17716e-15 1.92494e-15 3.1344e-15 5.0821e-15 8.20508e-15 1.31908e-14 2.11159e-14 3.36587e-14 5.34245e-14 8.44372e-14 1.32885e-13 2.08241e-13 3.24945e-13 5.049e-13 7.81185e-13 1.20351e-12 1.84627e-12 2.82028e-12 4.28986e-12 6.49744e-12 9.79931e-12 1.47161e-11 2.20062e-11 3.27679e-11 4.85849e-11 7.17318e-11 1.05455e-10 1.54373e-10 2.25026e-10 3.26619e-10 4.72068e-10 6.79391e-10 9.7361e-10 1.38932e-09 1.97415e-09 2.79323e-09 3.9354e-09 5.52116e-09 7.71309e-09 1.07296e-08 1.48629e-08 2.05016e-08 2.81605e-08 3.85182e-08 5.24654e-08 7.11633e-08 9.61236e-08 1.29303e-07 1.73216e-07 2.31095e-07 3.07061e-07 4.06356e-07 5.35617e-07 7.03204e-07 9.19645e-07 1.19809e-06 1.55499e-06 2.01072e-06 2.59064e-06 3.32605e-06 4.2556e-06 5.42685e-06 6.8982e-06 8.74138e-06 1.10442e-05 1.39139e-05 1.74821e-05 2.19088e-05 2.73897e-05 3.4163e-05 4.25189e-05 5.28111e-05 6.54681e-05 8.10127e-05 0.000100075 0.000123421 0.000151974 0.000186849 0.000229384 0.000281183 0.000344163 0.000420603 0.000513204 0.000625151 0.000760181 0.000922647 0.00111758 0.0013508 0.00162888 0.0019593 0.00235039 0.00281129 0.00335196 0.00398302 0.00471548 0.00556052 0.00652894 0.00763071 0.00887425 0.0102655 0.0118072 0.0134974 0.0153292 0.0172896 0.0193577 0.0215062 0.0236996 0.0258959 0.0280473 0.0301015 0.0320044 0.0337021 0.0351448 0.0362879 0.0370962 0.0375448 0.0376216 0.0373265 0.0366724 0.0356836 0.0343944 0.0328468 0.0310878 0.0291673 0.0271355 0.0250405 0.0229266 0.0208342 0.0187966 0.0168415 0.0149904 0.0132589 0.0116568 0.0101895 0.00885815 0.00766041 0.00659158 0.00564484 0.00481219 0.00408458 0.00345271 0.00290717 0.00243873 0.00203855 0.00169837 0.00141051 0.00116798 0.000964453 0.00079433 0.000652621 0.000534983 0.000437619 0.000357265 0.000291127 0.000236818 0.000192322 0.000155939 0.000126244 0.000102048 8.23644e-05 6.63738e-05 5.34015e-05 4.28918e-05 3.43891e-05 2.75193e-05 2.19774e-05 1.75131e-05 1.39233e-05 1.10418e-05 8.73358e-06 6.88857e-06 5.41738e-06 4.24724e-06 3.31915e-06 2.58518e-06 2.00658e-06 1.55191e-06 1.19588e-06 9.18076e-07 7.02111e-07 5.34865e-07 4.05846e-07 3.06725e-07 2.30875e-07 1.73074e-07 1.29211e-07 9.60671e-08;
   (1026295355) 4.38549e-15 4.38549e-15 4.70861e-15 7.69978e-15 1.25376e-14 2.03283e-14 3.28201e-14 5.27629e-14 8.44633e-14 1.34635e-13 2.13697e-13 3.37747e-13 5.31537e-13 8.32965e-13 1.29978e-12 2.0196e-12 3.12472e-12 4.81402e-12 7.38508e-12 1.12811e-11 1.71594e-11 2.59897e-11 3.91969e-11 5.88644e-11 8.80246e-11 1.31071e-10 1.94339e-10 2.86922e-10 4.21812e-10 6.17483e-10 9.00081e-10 1.30644e-09 1.8882e-09 2.71741e-09 3.89417e-09 5.55681e-09 7.89563e-09 1.11712e-08 1.57384e-08 2.20788e-08 3.08418e-08 4.28998e-08 5.94186e-08 8.19482e-08 1.1254e-07 1.53896e-07 2.09556e-07 2.84133e-07 3.83616e-07 5.15732e-07 6.90404e-07 9.20314e-07 1.22158e-06 1.6146e-06 2.12501e-06 2.78494e-06 3.63438e-06 4.72286e-06 6.11145e-06 7.87499e-06 1.01048e-05 1.29116e-05 1.64292e-05 2.08182e-05 2.62703e-05 3.30137e-05 4.13184e-05 5.1502e-05 6.39373e-05 7.90588e-05 9.73718e-05 0.000119461 0.000146001 0.000177768 0.000215649 0.000260659 0.000313957 0.000376857 0.000450852 0.000537634 0.00063911 0.000757434 0.000895022 0.00105458 0.00123914 0.00145203 0.00169696 0.00197797 0.00229943 0.00266605 0.00308279 0.00355482 0.0040874 0.00468577 0.00535496 0.00609962 0.00692374 0.00783043 0.00882157 0.00989758 0.011057 0.0122965 0.01361 0.0149893 0.0164232 0.0178979 0.0193971 0.0209019 0.0223911 0.0238421 0.0252311 0.0265335 0.0277253 0.0287834 0.0296863 0.0304153 0.0309547 0.0312928 0.031422 0.0313396 0.0310471 0.030551 0.029862 0.0289948 0.0279674 0.0268007 0.0255175 0.0241419 0.0226983 0.0212109 0.0197028 0.0181956 0.0167089 0.0152599 0.013863 0.01253 0.0112701 0.0100897 0.00899285 0.00798146 0.0070555 0.00621335 0.00545211 0.00476791 0.00415615 0.00361179 0.00312954 0.00270404 0.00233 0.00200233 0.00171619 0.00146707 0.00125078 0.00106352 0.000901817 0.000762551 0.000642929 0.000540458 0.000452922 0.000378359 0.000315038 0.00026143 0.000216193 0.000178149 0.000146266 0.000119643 9.74957e-05 7.91425e-05 6.39933e-05 5.15392e-05 4.13428e-05 3.30296e-05 2.62806e-05 2.08247e-05 1.64334e-05 1.29143e-05 1.01064e-05 7.87601e-06 6.11207e-06 4.72324e-06 3.6346e-06 2.78508e-06 2.12509e-06 1.61464e-06 1.22161e-06 9.2033e-07 6.90413e-07 5.15737e-07 3.83619e-07 2.84135e-07 2.09557e-07;
   (2) 7.3094e-16 7.3094e-16 7.3094e-16 7.3094e-16 7.3094e-16 7.3094e-16 7.3094e-16 7.3094e-16 7.3094e-16 7.3094e-16 7.3094e-16 7.3094e-16 7.3094e-16 7.3094e-16 7.84792e-16 1.28335e-15 2.08968e-15 3.38816e-15 5.47025e-15 8.79408e-15 1.40777e-14 2.244e-14 3.56176e-14 5.62936e-14 8.85934e-14 1.38834e-13 2.1664e-13 3.36616e-13 5.20812e-13 8.0238e-13 1.23093e-12 1.88032e-12 2.86013e-12 4.33204e-12 6.53365e-12 9.81228e-12 1.46735e-11 2.18503e-11 3.23999e-11 4.7839e-11 7.03379e-11 1.0298e-10 1.50137e-10 2.17972e-10 3.15131e-10 4.53703e-10 6.50484e-10 9.28783e-10 1.32071e-09 1.87042e-09 2.63826e-09 3.70656e-09 5.18711e-09 7.23104e-09 1.00426e-08 1.38962e-08 1.91597e-08 2.63258e-08 3.60531e-08 4.92194e-08 6.69926e-08 9.09311e-08 1.23106e-07 1.66275e-07 2.24114e-07 3.01518e-07 4.05033e-07 5.4341e-07 7.28379e-07 9.75691e-07 1.30659e-06 1.74971e-06 2.34381e-06 3.14142e-06 4.21401e-06 5.65888e-06 7.60862e-06 1.02445e-05 1.38139e-05 1.86552e-05 2.52303e-05 3.41701e-05 4.63332e-05 6.28851e-05 8.54044e-05 0.000116017 0.000157562 0.00021382 0.000289762 0.000391868 0.000528484 0.000710192 0.000950211 0.00126474 0.00167315 0.00219808 0.00286514 0.00370225 0.00473843 0.006002 0.00751822 0.00930634 0.0113761 0.0137249 0.0163334 0.0191655 0.0221646 0.0252576 0.028354 0.0313539 0.0341517 0.0366448 0.03874 0.0403611 0.0414534 0.0419892 0.0419656 0.0414063 0.0403569 0.0388808 0.0370524 0.0349524 0.0326625 0.0302593 0.0278131 0.0253835 0.0230196 0.0207589 0.018629 0.0166472 0.0148231 0.0131599 0.0116548 0.0103023 0.00909349 0.00801807 0.0070649 0.00622264 0.00548003 0.00482643 0.00425191 0.00374723 0.00330397 0.00291469 0.00257263 0.00227188 0.00200718 0.00177395 0.00156821 0.00138642 0.00122561 0.00108313 0.000956739 0.00084445 0.000744615 0.000655779 0.000576689 0.000506264 0.000443561 0.000387775 0.00033818 0.000294156 0.00025514 0.000220636 0.000190193 0.00016341 0.000139912 0.000119368 0.000101469 8.59279e-05 7.2489e-05 6.0914e-05 5.09838e-05 4.25008e-05 3.52863e-05 2.91767e-05 2.40255e-05 1.97017e-05 1.60889e-05 1.30837e-05 1.0595e-05 8.54385e-06 6.86059e-06 5.48577e-06 4.36791e-06 3.46312e-06 2.73411e-06 2.14943e-06 1.6826e-06 1.31158e-06 1.01802e-06;
   (3) 3.88542e-14 6.14083e-14 9.66428e-14 1.51448e-13 2.36324e-13 3.67199e-13 5.68129e-13 8.75275e-13 1.34274e-12 2.05111e-12 3.11988e-12 4.7254e-12 7.1267e-12 1.07026e-11 1.60046e-11 2.3831e-11 3.53343e-11 5.21677e-11 7.66931e-11 1.1227e-10 1.63651e-10 2.37535e-10 3.43307e-10 4.94078e-10 7.08032e-10 1.01034e-09 1.43558e-09 2.03115e-09 2.86158e-09 4.01437e-09 5.6077e-09 7.80022e-09 1.08039e-08 1.49004e-08 2.04633e-08 2.79839e-08 3.81061e-08 5.16698e-08 6.97644e-08 9.37982e-08 1.25577e-07 1.67415e-07 2.22253e-07 2.9381e-07 3.86785e-07 5.07051e-07 6.61954e-07 8.60607e-07 1.11428e-06 1.43686e-06 1.84528e-06 2.36038e-06 3.00729e-06 3.81665e-06 4.82522e-06 6.07752e-06 7.62684e-06 9.53706e-06 1.18845e-05 1.47606e-05 1.82742e-05 2.25559e-05 2.77612e-05 3.40762e-05 4.17233e-05 5.09712e-05 6.21406e-05 7.56186e-05 9.1874e-05 0.000111472 0.000135101 0.000163594 0.000197967 0.000239459 0.000289577 0.000350161 0.000423451 0.00051218 0.000619652 0.000749878 0.000907702 0.00109892 0.00133045 0.00161049 0.00194861 0.00235591 0.00284508 0.00343035 0.00412738 0.00495292 0.00592441 0.00705913 0.00837325 0.0098804 0.0115903 0.0135071 0.0156266 0.0179359 0.0204097 0.0230123 0.0256939 0.0283933 0.0310395 0.0335535 0.0358538 0.037859 0.0394962 0.0407015 0.0414295 0.0416522 0.0413644 0.0405808 0.0393377 0.0376872 0.0356951 0.0334351 0.0309848 0.0284205 0.025814 0.0232283 0.0207178 0.0183249 0.0160816 0.0140097 0.012121 0.0104199 0.00890443 0.00756734 0.00639798 0.00538355 0.00451012 0.00376299 0.00312781 0.00259081 0.00213913 0.00176102 0.00144582 0.00118412 0.000967613 0.000789109 0.000642346 0.000522034 0.000423628 0.000343321 0.000277911 0.000224722 0.000181532 0.000146506 0.00011813 9.51647e-05 7.65913e-05 6.15808e-05 4.94591e-05 3.96758e-05 3.17855e-05 2.54271e-05 2.03073e-05 1.61894e-05 1.28811e-05 1.02267e-05 8.10047e-06 6.40023e-06 5.04339e-06 3.96289e-06 3.10459e-06 2.42456e-06 1.88729e-06 1.4641e-06 1.13182e-06 8.71798e-07 6.6904e-07 5.11497e-07 3.89553e-07 2.95519e-07 2.23298e-07 1.68049e-07 1.25958e-07 9.40246e-08 6.98992e-08 5.17485e-08 3.81522e-08 2.80106e-08 2.04786e-08 1.4909e-08 1.08086e-08 7.80291e-09 5.60918e-09 4.0152e-09 2.862e-09 2.0314e-09 1.4357e-09;
   (1118574845) 2.92369e-15 2.92369e-15 2.92369e-15 2.92369e-15 2.92369e-15 2.92369e-15 2.92369e-15 2.92369e-15 2.92369e-15 2.92369e-15 3.13911e-15 5.13325e-15 8.35853e-15 1.35524e-14 2.18803e-14 3.51757e-14 5.63095e-14 8.9758e-14 1.42467e-13 2.25167e-13 3.54362e-13 5.55317e-13 8.66534e-13 1.34642e-12 2.08317e-12 3.20939e-12 4.92346e-12 7.52088e-12 1.14398e-11 1.73268e-11 2.61319e-11 3.9244e-11 5.86852e-11 8.73845e-11 1.29566e-10 1.91296e-10 2.81234e-10 4.11705e-10 6.00149e-10 8.71137e-10 1.25914e-09 1.81225e-09 2.59731e-09 3.70678e-09 5.26788e-09 7.45503e-09 1.0506e-08 1.47441e-08 2.06057e-08 2.86789e-08 3.97515e-08 5.48753e-08 7.54482e-08 1.03321e-07 1.40937e-07 1.91506e-07 2.59236e-07 3.49625e-07 4.69834e-07 6.29174e-07 8.39724e-07 1.11713e-06 1.48162e-06 1.95931e-06 2.58399e-06 3.39916e-06 4.46101e-06 5.84201e-06 7.63563e-06 9.96252e-06 1.2978e-05 1.68826e-05 2.19342e-05 2.8465e-05 3.69009e-05 4.77877e-05 6.18226e-05 7.98926e-05 0.000103119 0.000132919 0.00017106 0.000219743 0.00028168 0.000360182 0.000459251 0.000583671 0.000739086 0.00093206 0.00117011 0.0014617 0.00181616 0.00224353 0.00275437 0.00335942 0.00406912 0.00489315 0.00583977 0.00691516 0.00812266 0.00946211 0.0109291 0.0125145 0.0142043 0.0159789 0.0178139 0.01968 0.0215443 0.023371 0.0251226 0.0267614 0.0282515 0.0295597 0.0306575 0.0315219 0.0321365 0.0324924 0.0325877 0.0324284 0.0320265 0.0314003 0.030573 0.0295712 0.0284237 0.0271604 0.0258112 0.0244044 0.0229664 0.0215211 0.0200889 0.0186871 0.0173296 0.0160271 0.0147873 0.0136151 0.0125133 0.0114826 0.010522 0.00962973 0.00880289 0.00803797 0.00733126 0.0066789 0.00607694 0.00552166 0.00500955 0.00453733 0.00410201 0.0037009 0.00333156 0.00299181 0.00267971 0.00239346 0.00213146 0.00189222 0.00167435 0.00147653 0.00129751 0.00113605 0.000990981 0.000861155 0.000745428 0.000642721 0.000551951 0.000472087 0.000402134 0.000341139 0.0002882 0.000242464 0.000203135 0.000169473 0.000140794 0.000116476 9.59522e-05 7.87105e-05 6.42935e-05 5.2295e-05 4.23554e-05 3.41595e-05 2.74326e-05 2.1937e-05 1.74678e-05 1.38501e-05 1.0935e-05 8.59675e-06 6.72981e-06 5.24593e-06 4.07186e-06 3.14713e-06 2.42207e-06 1.85613e-06 1.41639e-06;
